{"learner":{"attributes":{"scikit_learn":"{\"_estimator_type\": \"classifier\"}"},"feature_names":["avg_center_color","avg_square_color","color_contrast_center","color_variance","mean_top","mean_bottom","contrast_top_bottom","edge_strength"],"feature_types":["float","float","float","float","float","float","float","float"],"gradient_booster":{"model":{"gbtree_model_param":{"num_parallel_tree":"1","num_trees":"100"},"iteration_indptr":[0,1,2,3,4,5,6,7,8,9,10,11,12,13,14,15,16,17,18,19,20,21,22,23,24,25,26,27,28,29,30,31,32,33,34,35,36,37,38,39,40,41,42,43,44,45,46,47,48,49,50,51,52,53,54,55,56,57,58,59,60,61,62,63,64,65,66,67,68,69,70,71,72,73,74,75,76,77,78,79,80,81,82,83,84,85,86,87,88,89,90,91,92,93,94,95,96,97,98,99,100],"tree_info":[0,0,0,0,0,0,0,0,0,0,0,0,0,0,0,0,0,0,0,0,0,0,0,0,0,0,0,0,0,0,0,0,0,0,0,0,0,0,0,0,0,0,0,0,0,0,0,0,0,0,0,0,0,0,0,0,0,0,0,0,0,0,0,0,0,0,0,0,0,0,0,0,0,0,0,0,0,0,0,0,0,0,0,0,0,0,0,0,0,0,0,0,0,0,0,0,0,0,0,0],"trees":[{"base_weights":[-1.4604281E-1,-9.993428E-1,3.1693137E0,-1.2694029E0,9.8077303E-1,3.6510615E0,-1.1944313E-1,2.2058044E-1,-1.2994022E0,-2.1384184E-1,1.8490175E0,3.6780756E0,1.23456635E-1,-1.3083589E-1,-3.987245E-2,-8.080984E-2,1.0464857E-1,3.0940568E-1,9.197385E-2,1.003314E-1,3.706906E-1],"categories":[],"categories_nodes":[],"categories_segments":[],"categories_sizes":[],"default_left":[0,0,0,0,0,0,0,0,0,0,0,0,0,0,0,0,0,0,0,0,0],"id":0,"left_children":[1,3,5,7,9,11,-1,-1,13,15,17,19,-1,-1,-1,-1,-1,-1,-1,-1,-1],"loss_changes":[1.3395295E3,2.0255038E2,2.0813666E2,3.744763E1,4.7842247E1,1.1739502E0,0E0,0E0,2.1364136E0,1.593705E1,2.7923828E1,2.9179688E0,0E0,0E0,0E0,0E0,0E0,0E0,0E0,0E0,0E0],"parents":[2147483647,0,0,1,1,2,2,3,3,4,4,5,5,8,8,9,9,10,10,11,11],"right_children":[2,4,6,8,10,12,-1,-1,14,16,18,20,-1,-1,-1,-1,-1,-1,-1,-1,-1],"split_conditions":[2.4307804E1,1.7861129E0,1.8606006E2,2.786113E1,1.2434617E1,2.1430022E2,-1.1944313E-1,2.2058044E-1,2.2337372E1,2.6995212E3,7.0461136E1,1.3219268E0,1.23456635E-1,-1.3083589E-1,-3.987245E-2,-8.080984E-2,1.0464857E-1,3.0940568E-1,9.197385E-2,1.003314E-1,3.706906E-1],"split_indices":[2,7,0,0,2,4,0,0,2,3,4,7,0,0,0,0,0,0,0,0,0],"split_type":[0,0,0,0,0,0,0,0,0,0,0,0,0,0,0,0,0,0,0,0,0],"sum_hessian":[4.7138086E2,3.7544748E2,9.5933365E1,3.3070312E2,4.4744354E1,8.654258E1,9.39079E0,2.2095976E0,3.2849353E2,1.9149847E1,2.5594507E1,8.506951E1,1.4730651E0,3.2481085E2,3.682663E0,1.32575865E1,5.8922606E0,9.94319E0,1.5651317E1,1.288932E0,8.378058E1],"tree_param":{"num_deleted":"0","num_feature":"8","num_nodes":"21","size_leaf_vector":"1"}},{"base_weights":[-1.4090294E-1,-9.717954E-1,2.4065664E0,-1.2304245E0,7.894631E-1,2.7538257E0,-1.16974436E-1,1.902108E-1,-1.2617804E0,2.325619E0,2.76527E-1,2.242098E-2,2.7792436E-1,-1.2680835E-1,-1.2872497E-2,2.607422E-1,-2.3504157E-2,-8.0821596E-2,9.396657E-2],"categories":[],"categories_nodes":[],"categories_segments":[],"categories_sizes":[],"default_left":[0,0,0,0,0,0,0,0,0,0,0,0,0,0,0,0,0,0,0],"id":1,"left_children":[1,3,5,7,9,11,-1,-1,13,15,17,-1,-1,-1,-1,-1,-1,-1,-1],"loss_changes":[9.907225E2,1.6168509E2,1.4620477E2,3.265619E1,3.5432884E1,6.1435547E0,0E0,0E0,2.0191956E0,8.785725E0,2.6266068E1,0E0,0E0,0E0,0E0,0E0,0E0,0E0,0E0],"parents":[2147483647,0,0,1,1,2,2,3,3,4,4,5,5,8,8,9,9,10,10],"right_children":[2,4,6,8,10,12,-1,-1,14,16,18,-1,-1,-1,-1,-1,-1,-1,-1],"split_conditions":[2.3220198E1,1.7861129E0,1.8606006E2,2.786113E1,4.7024765E1,1.2788982E0,-1.16974436E-1,1.902108E-1,2.2337372E1,2.3919038E3,9.329007E1,2.242098E-2,2.7792436E-1,-1.2680835E-1,-1.2872497E-2,2.607422E-1,-2.3504157E-2,-8.0821596E-2,9.396657E-2],"split_indices":[2,7,0,0,0,7,0,0,2,3,0,0,0,0,0,0,0,0,0],"split_type":[0,0,0,0,0,0,0,0,0,0,0,0,0,0,0,0,0,0,0],"sum_hessian":[4.6595154E2,3.5181934E2,1.14132225E2,3.070347E2,4.4784622E1,1.0424047E2,9.89175E0,2.4515977E0,3.045831E2,1.032602E1,3.4458603E1,1.1346977E0,1.03105774E2,3.027796E2,1.8035052E0,9.285844E0,1.0401763E0,1.2990442E1,2.1468159E1],"tree_param":{"num_deleted":"0","num_feature":"8","num_nodes":"19","size_leaf_vector":"1"}},{"base_weights":[-1.3542347E-1,-9.310109E-1,2.0062928E0,-1.1944283E0,6.9180655E-1,2.2700117E0,-1.1336648E-1,1.6708991E-1,-1.2269322E0,-5.4143035E-1,1.1982005E0,2.1099295E-2,2.2889981E0,-1.2335215E-1,-1.210016E-2,-9.7685724E-2,4.122561E-2,1.441512E-1,-1.0163211E-1,1.6739058E-1,2.356271E-1],"categories":[],"categories_nodes":[],"categories_segments":[],"categories_sizes":[],"default_left":[0,0,0,0,0,0,0,0,0,0,0,0,0,0,0,0,0,0,0,0,0],"id":2,"left_children":[1,3,5,7,9,11,-1,-1,13,15,17,-1,19,-1,-1,-1,-1,-1,-1,-1,-1],"loss_changes":[7.7801514E2,1.4309647E2,1.0499994E2,2.8751678E1,3.0069937E1,3.9910278E0,0E0,0E0,1.9208069E0,6.3835206E0,1.9627956E1,0E0,7.438965E-1,0E0,0E0,0E0,0E0,0E0,0E0,0E0,0E0],"parents":[2147483647,0,0,1,1,2,2,3,3,4,4,5,5,8,8,9,9,10,10,12,12],"right_children":[2,4,6,8,10,12,-1,-1,14,16,18,-1,20,-1,-1,-1,-1,-1,-1,-1,-1],"split_conditions":[2.3220198E1,1.7861129E0,1.8606006E2,2.786113E1,9.322346E0,1.2788982E0,-1.1336648E-1,1.6708991E-1,2.2337372E1,2.6995212E3,1.9232242E2,2.1099295E-2,2.7052973E1,-1.2335215E-1,-1.210016E-2,-9.7685724E-2,4.122561E-2,1.441512E-1,-1.0163211E-1,1.6739058E-1,2.356271E-1],"split_indices":[2,7,0,0,2,7,0,0,2,3,0,0,2,0,0,0,0,0,0,0,0],"split_type":[0,0,0,0,0,0,0,0,0,0,0,0,0,0,0,0,0,0,0,0,0],"sum_hessian":[4.5450616E2,3.3181247E2,1.2269371E2,2.8570114E2,4.6111324E1,1.1344292E2,9.25079E0,2.6392071E0,2.8306192E2,1.3402532E1,3.2708794E1,1.1471761E0,1.1229574E2,2.812707E2,1.7912397E0,9.184738E0,4.217794E0,2.9785318E1,2.923475E0,1.3622689E1,9.867305E1],"tree_param":{"num_deleted":"0","num_feature":"8","num_nodes":"21","size_leaf_vector":"1"}},{"base_weights":[-1.3010444E-1,-8.9466053E-1,1.7424647E0,-1.1288866E0,8.234903E-1,1.9573636E0,-1.101195E-1,1.912075E-1,-1.1936879E0,-6.957287E-1,1.224616E0,1.98584E-2,1.9729272E0,-1.2001628E-1,-2.1558736E-2,-1.0542511E-1,8.145812E-3,1.424911E-1,-9.160078E-2,1.9878595E-1,6.853727E-2],"categories":[],"categories_nodes":[],"categories_segments":[],"categories_sizes":[],"default_left":[0,0,0,0,0,0,0,0,0,0,0,0,0,0,0,0,0,0,0,0,0],"id":3,"left_children":[1,3,5,7,9,11,-1,-1,13,15,17,-1,19,-1,-1,-1,-1,-1,-1,-1,-1],"loss_changes":[6.3191205E2,1.2701282E2,8.036862E1,5.6697235E1,2.4109514E1,2.8753357E0,0E0,0E0,1.457428E0,2.4848566E0,1.4405914E1,0E0,9.1000366E-1,0E0,0E0,0E0,0E0,0E0,0E0,0E0,0E0],"parents":[2147483647,0,0,1,1,2,2,3,3,4,4,5,5,8,8,9,9,10,10,12,12],"right_children":[2,4,6,8,10,12,-1,-1,14,16,18,-1,20,-1,-1,-1,-1,-1,-1,-1,-1],"split_conditions":[2.3220198E1,1.9380779E0,1.8606006E2,2.786113E1,7.1644144E0,1.2788982E0,-1.101195E-1,1.912075E-1,2.2337372E1,2.6995212E3,1.997705E2,1.98584E-2,2.1430022E2,-1.2001628E-1,-2.1558736E-2,-1.0542511E-1,8.145812E-3,1.424911E-1,-9.160078E-2,1.9878595E-1,6.853727E-2],"split_indices":[2,7,0,0,2,7,0,0,2,3,0,0,4,0,0,0,0,0,0,0,0],"split_type":[0,0,0,0,0,0,0,0,0,0,0,0,0,0,0,0,0,0,0,0,0],"sum_hessian":[4.3928784E2,3.123002E2,1.2698763E2,2.7513547E2,3.7164738E1,1.1835507E2,8.632567E0,5.145876E0,2.699896E2,7.609639E0,2.95551E1,1.158841E0,1.1719623E2,2.6798853E2,2.0010796E0,4.96346E0,2.646179E0,2.7332031E1,2.2230692E0,1.1531499E2,1.8812394E0],"tree_param":{"num_deleted":"0","num_feature":"8","num_nodes":"21","size_leaf_vector":"1"}},{"base_weights":[-1.2540923E-1,-1.0312691E0,1.261042E0,-1.1544071E0,1.0581545E0,1.4480821E0,-1.0736722E0,1.042906E-1,-1.1786641E0,1.8225238E0,-9.622228E-1,-9.6893586E-2,1.7014233E0,-2.1083495E-2,-1.13784604E-1,-3.174298E-2,-1.18275225E-1,1.979671E-1,3.166395E-2,-1.10305086E-1,-2.8170539E-2,-7.528799E-2,6.8837345E-2,1.7218778E-1,-3.963505E-2],"categories":[],"categories_nodes":[],"categories_segments":[],"categories_sizes":[],"default_left":[0,0,0,0,0,0,0,0,0,0,0,0,0,0,0,0,0,0,0,0,0,0,0,0,0],"id":4,"left_children":[1,3,5,7,9,11,13,-1,15,17,19,21,23,-1,-1,-1,-1,-1,-1,-1,-1,-1,-1,-1,-1],"loss_changes":[5.319774E2,6.711594E1,7.466687E1,1.4145813E1,2.4571568E1,6.1002167E1,4.7950554E-1,0E0,4.7009277E-1,1.9917183E0,1.4065981E-1,1.2285254E1,6.4146423E0,0E0,0E0,0E0,0E0,0E0,0E0,0E0,0E0,0E0,0E0,0E0,0E0],"parents":[2147483647,0,0,1,1,2,2,3,3,4,4,5,5,6,6,8,8,9,9,10,10,11,11,12,12],"right_children":[2,4,6,8,10,12,14,-1,16,18,20,22,24,-1,-1,-1,-1,-1,-1,-1,-1,-1,-1,-1,-1],"split_conditions":[1.7159001E0,2.4307804E1,1.9232242E2,2.786113E1,3.1236099E3,1.4058374E1,1.997705E2,1.042906E-1,3.3883236E1,1.9057903E1,4.3313324E1,2.2314253E0,2.1168118E2,-2.1083495E-2,-1.13784604E-1,-3.174298E-2,-1.18275225E-1,1.979671E-1,3.166395E-2,-1.10305086E-1,-2.8170539E-2,-7.528799E-2,6.8837345E-2,1.7218778E-1,-3.963505E-2],"split_indices":[7,2,0,0,3,2,0,0,0,6,6,7,4,0,0,0,0,0,0,0,0,0,0,0,0],"split_type":[0,0,0,0,0,0,0,0,0,0,0,0,0,0,0,0,0,0,0,0,0,0,0,0,0],"sum_hessian":[4.215369E2,2.5511176E2,1.6642514E2,2.4133635E2,1.377542E1,1.5443286E2,1.199227E1,2.1765814E0,2.3915976E2,1.0065332E1,3.710088E0,2.1843006E1,1.3258986E2,1.1268464E0,1.0865424E1,1.5014353E0,2.3765833E2,8.829322E0,1.2360103E0,2.5595155E0,1.1505725E0,1.1923635E1,9.919371E0,1.3148698E2,1.1028789E0],"tree_param":{"num_deleted":"0","num_feature":"8","num_nodes":"25","size_leaf_vector":"1"}},{"base_weights":[-1.2122533E-1,-1.0055201E0,1.1347032E0,-1.1303428E0,9.620526E-1,1.2979141E0,-1.0412498E0,9.600934E-2,-1.1555482E0,1.6524955E0,-9.2033404E-1,-8.954072E-2,1.5216627E0,-2.0100115E-2,-1.10733785E-1,-3.0244578E-2,-1.15987E-1,1.7920351E-1,2.987259E-2,-1.0566058E-1,-2.6871411E-2,-7.111302E-2,6.1084684E-2,1.198609E-1,1.6910881E-1],"categories":[],"categories_nodes":[],"categories_segments":[],"categories_sizes":[],"default_left":[0,0,0,0,0,0,0,0,0,0,0,0,0,0,0,0,0,0,0,0,0,0,0,0,0],"id":5,"left_children":[1,3,5,7,9,11,13,-1,15,17,19,21,23,-1,-1,-1,-1,-1,-1,-1,-1,-1,-1,-1,-1],"loss_changes":[4.4957614E2,5.9410217E1,6.0766464E1,1.2899811E1,2.0634937E1,4.8587555E1,4.5644665E-1,0E0,4.6603394E-1,1.5648689E0,1.2356448E-1,1.0281342E1,5.332184E0,0E0,0E0,0E0,0E0,0E0,0E0,0E0,0E0,0E0,0E0,0E0,0E0],"parents":[2147483647,0,0,1,1,2,2,3,3,4,4,5,5,6,6,8,8,9,9,10,10,11,11,12,12],"right_children":[2,4,6,8,10,12,14,-1,16,18,20,22,24,-1,-1,-1,-1,-1,-1,-1,-1,-1,-1,-1,-1],"split_conditions":[1.7159001E0,2.4307804E1,1.9232242E2,2.786113E1,3.1236099E3,1.4058374E1,1.997705E2,9.600934E-2,3.3883236E1,1.9057903E1,4.3313324E1,2.2314253E0,2.2581713E0,-2.0100115E-2,-1.10733785E-1,-3.0244578E-2,-1.15987E-1,1.7920351E-1,2.987259E-2,-1.0566058E-1,-2.6871411E-2,-7.111302E-2,6.1084684E-2,1.198609E-1,1.6910881E-1],"split_indices":[7,2,0,0,3,2,0,0,0,6,6,7,7,0,0,0,0,0,0,0,0,0,0,0,0],"split_type":[0,0,0,0,0,0,0,0,0,0,0,0,0,0,0,0,0,0,0,0,0,0,0,0,0],"sum_hessian":[4.027734E2,2.3647299E2,1.6630042E2,2.2276624E2,1.3706757E1,1.5507246E2,1.1227953E1,2.212114E0,2.2055411E2,1.0117773E1,3.5889833E0,2.1618284E1,1.3345418E2,1.1134079E0,1.0114545E1,1.4694617E0,2.1908466E2,8.87885E0,1.2389231E0,2.4542298E0,1.1347536E0,1.1445309E1,1.01729765E1,4.8689487E1,8.4764694E1],"tree_param":{"num_deleted":"0","num_feature":"8","num_nodes":"25","size_leaf_vector":"1"}},{"base_weights":[-1.16879866E-1,-9.824785E-1,1.0333301E0,-1.1088467E0,8.84162E-1,1.1783878E0,-1.011219E0,8.873554E-2,-1.1350607E0,1.5198723E0,-8.815223E-1,-8.290736E-2,1.380852E0,-1.9163387E-2,-1.0795257E-1,-2.8815677E-2,-1.1396551E-1,1.681272E-1,4.078653E-2,-1.0139847E-1,-2.5634093E-2,-6.714222E-2,5.442455E-2,9.164159E-2,1.5093279E-1],"categories":[],"categories_nodes":[],"categories_segments":[],"categories_sizes":[],"default_left":[0,0,0,0,0,0,0,0,0,0,0,0,0,0,0,0,0,0,0,0,0,0,0,0,0],"id":6,"left_children":[1,3,5,7,9,11,13,-1,15,17,19,21,23,-1,-1,-1,-1,-1,-1,-1,-1,-1,-1,-1,-1],"loss_changes":[3.835623E2,5.281642E1,5.026857E1,1.1800598E1,1.7604202E1,3.9690445E1,4.369774E-1,0E0,4.6548462E-1,1.2923203E0,1.10146284E-1,8.625421E0,6.588455E0,0E0,0E0,0E0,0E0,0E0,0E0,0E0,0E0,0E0,0E0,0E0,0E0],"parents":[2147483647,0,0,1,1,2,2,3,3,4,4,5,5,6,6,8,8,9,9,10,10,11,11,12,12],"right_children":[2,4,6,8,10,12,14,-1,16,18,20,22,24,-1,-1,-1,-1,-1,-1,-1,-1,-1,-1,-1,-1],"split_conditions":[1.7159001E0,2.4307804E1,1.9232242E2,2.786113E1,3.1236099E3,1.4058374E1,1.997705E2,8.873554E-2,3.3883236E1,1.6798071E0,4.3313324E1,2.2314253E0,2.4813211E1,-1.9163387E-2,-1.0795257E-1,-2.8815677E-2,-1.1396551E-1,1.681272E-1,4.078653E-2,-1.0139847E-1,-2.5634093E-2,-6.714222E-2,5.442455E-2,9.164159E-2,1.5093279E-1],"split_indices":[7,2,0,0,3,2,0,0,0,7,6,7,2,0,0,0,0,0,0,0,0,0,0,0,0],"split_type":[0,0,0,0,0,0,0,0,0,0,0,0,0,0,0,0,0,0,0,0,0,0,0,0,0],"sum_hessian":[3.8322992E2,2.1875221E2,1.6447769E2,2.052623E2,1.3489916E1,1.5397691E2,1.0500784E1,2.234758E0,2.0302754E2,1.0021153E1,3.468762E0,2.1379446E1,1.3259747E2,1.1006018E0,9.400183E0,1.4392703E0,2.0158827E2,8.303967E0,1.717186E0,2.3491275E0,1.1196344E0,1.0993062E1,1.0386383E1,3.049436E1,1.0210311E2],"tree_param":{"num_deleted":"0","num_feature":"8","num_nodes":"25","size_leaf_vector":"1"}},{"base_weights":[-1.1284803E-1,-9.614431E-1,9.4965017E-1,-1.0894791E0,8.1842375E-1,1.0805004E0,-9.831172E-1,8.228214E-2,-1.1167666E0,1.4102993E0,-8.4538907E-1,-7.688853E-2,1.2673348E0,-1.827101E-2,-1.0539104E-1,-2.745308E-2,-1.1216736E-1,1.542661E-1,2.1649612E-2,-9.7464874E-2,-2.445541E-2,-6.335507E-2,4.8648037E-2,8.195935E-2,1.3962895E-1],"categories":[],"categories_nodes":[],"categories_segments":[],"categories_sizes":[],"default_left":[0,0,0,0,0,0,0,0,0,0,0,0,0,0,0,0,0,0,0,0,0,0,0,0,0],"id":7,"left_children":[1,3,5,7,9,11,13,-1,15,17,19,21,23,-1,-1,-1,-1,-1,-1,-1,-1,-1,-1,-1,-1],"loss_changes":[3.2940015E2,4.7163788E1,4.21026E1,1.0825699E1,1.5173297E1,3.3066162E1,4.2015743E-1,0E0,4.6740723E-1,1.3799629E0,9.951949E-2,7.249507E0,6.438385E0,0E0,0E0,0E0,0E0,0E0,0E0,0E0,0E0,0E0,0E0,0E0,0E0],"parents":[2147483647,0,0,1,1,2,2,3,3,4,4,5,5,6,6,8,8,9,9,10,10,11,11,12,12],"right_children":[2,4,6,8,10,12,14,-1,16,18,20,22,24,-1,-1,-1,-1,-1,-1,-1,-1,-1,-1,-1,-1],"split_conditions":[1.7159001E0,2.4307804E1,1.9232242E2,2.786113E1,3.1236099E3,1.4058374E1,1.997705E2,8.228214E-2,3.3883236E1,1.9057903E1,4.3313324E1,2.2314253E0,2.4813211E1,-1.827101E-2,-1.0539104E-1,-2.745308E-2,-1.1216736E-1,1.542661E-1,2.1649612E-2,-9.7464874E-2,-2.445541E-2,-6.335507E-2,4.8648037E-2,8.195935E-2,1.3962895E-1],"split_indices":[7,2,0,0,3,2,0,0,0,6,6,7,2,0,0,0,0,0,0,0,0,0,0,0,0],"split_type":[0,0,0,0,0,0,0,0,0,0,0,0,0,0,0,0,0,0,0,0,0,0,0,0,0],"sum_hessian":[3.6332553E2,2.0204863E2,1.612769E2,1.8885136E2,1.3197267E1,1.5146362E2,9.81328E0,2.2467327E0,1.8660463E2,9.846791E0,3.3504744E0,2.1133804E1,1.3032982E2,1.088402E0,8.724878E0,1.4107684E0,1.8519386E2,8.600947E0,1.2458445E0,2.2452822E0,1.1051922E0,1.0567516E1,1.0566288E1,3.078778E1,9.954204E1],"tree_param":{"num_deleted":"0","num_feature":"8","num_nodes":"25","size_leaf_vector":"1"}},{"base_weights":[-1.0913899E-1,-9.4241947E-1,8.777087E-1,-1.0718771E0,7.6248467E-1,9.9687076E-1,-9.565712E-1,7.650601E-2,-1.1003077E0,1.320983E0,-8.1160563E-1,1.6304292E-1,1.2240412E0,-1.7420802E-2,-1.0300847E-1,-2.6153753E-2,-1.1055694E-1,1.4481775E-1,2.0451466E-2,-9.381562E-2,-2.333237E-2,1.2979189E-1,-1.9877993E-2,6.583021E-2,1.2979963E-1],"categories":[],"categories_nodes":[],"categories_segments":[],"categories_sizes":[],"default_left":[0,0,0,0,0,0,0,0,0,0,0,0,0,0,0,0,0,0,0,0,0,0,0,0,0],"id":8,"left_children":[1,3,5,7,9,11,13,-1,15,17,19,21,23,-1,-1,-1,-1,-1,-1,-1,-1,-1,-1,-1,-1],"loss_changes":[2.8422928E2,4.2165527E1,3.5553703E1,9.956879E0,1.320896E1,2.8048935E1,4.052782E-1,0E0,4.7117615E-1,1.2049503E0,9.1026306E-2,1.3843121E1,4.042694E0,0E0,0E0,0E0,0E0,0E0,0E0,0E0,0E0,0E0,0E0,0E0,0E0],"parents":[2147483647,0,0,1,1,2,2,3,3,4,4,5,5,6,6,8,8,9,9,10,10,11,11,12,12],"right_children":[2,4,6,8,10,12,14,-1,16,18,20,22,24,-1,-1,-1,-1,-1,-1,-1,-1,-1,-1,-1,-1],"split_conditions":[1.7159001E0,2.4307804E1,1.9232242E2,2.786113E1,3.1236099E3,1.8094687E1,1.997705E2,7.650601E-2,3.3883236E1,1.9057903E1,4.3313324E1,5.1272266E1,1.9175502E0,-1.7420802E-2,-1.0300847E-1,-2.6153753E-2,-1.1055694E-1,1.4481775E-1,2.0451466E-2,-9.381562E-2,-2.333237E-2,1.2979189E-1,-1.9877993E-2,6.583021E-2,1.2979963E-1],"split_indices":[7,2,0,0,3,2,0,0,0,6,6,0,7,0,0,0,0,0,0,0,0,0,0,0,0],"split_type":[0,0,0,0,0,0,0,0,0,0,0,0,0,0,0,0,0,0,0,0,0,0,0,0,0],"sum_hessian":[3.4363687E2,1.8633945E2,1.5729744E2,1.7353389E2,1.2805565E1,1.481308E2,9.166632E0,2.2499795E0,1.712839E2,9.570633E0,3.234932E0,3.2084087E1,1.16046715E2,1.0767825E0,8.089849E0,1.3838651E0,1.6990004E2,8.325085E0,1.2455474E0,2.1435285E0,1.0914035E0,7.130801E0,2.4953287E1,1.456086E1,1.01485855E2],"tree_param":{"num_deleted":"0","num_feature":"8","num_nodes":"25","size_leaf_vector":"1"}},{"base_weights":[-1.05236E-1,-9.248803E-1,8.1417423E-1,-1.0557373E0,7.139001E-1,9.2329496E-1,-9.3127847E-1,7.129617E-2,-1.0853856E0,1.2455589E0,-7.7989876E-1,-7.6404355E-2,1.0911945E0,-1.6610699E-2,-1.0077148E-1,-2.4914823E-2,-1.0910457E-1,1.4022414E-1,2.548488E-2,-9.041419E-2,-2.2262184E-2,-6.0530216E-2,4.369941E-2,6.57618E-2,1.22670434E-1],"categories":[],"categories_nodes":[],"categories_segments":[],"categories_sizes":[],"default_left":[0,0,0,0,0,0,0,0,0,0,0,0,0,0,0,0,0,0,0,0,0,0,0,0,0],"id":9,"left_children":[1,3,5,7,9,11,13,-1,15,17,19,21,23,-1,-1,-1,-1,-1,-1,-1,-1,-1,-1,-1,-1],"loss_changes":[2.4618866E2,3.7778717E1,3.0197968E1,9.179337E0,1.158469E1,2.4500908E1,3.918066E-1,0E0,4.762268E-1,1.2323017E0,8.4168434E-2,6.198498E0,6.5151978E0,0E0,0E0,0E0,0E0,0E0,0E0,0E0,0E0,0E0,0E0,0E0,0E0],"parents":[2147483647,0,0,1,1,2,2,3,3,4,4,5,5,6,6,8,8,9,9,10,10,11,11,12,12],"right_children":[2,4,6,8,10,12,14,-1,16,18,20,22,24,-1,-1,-1,-1,-1,-1,-1,-1,-1,-1,-1,-1],"split_conditions":[1.7159001E0,2.4307804E1,1.9232242E2,2.786113E1,3.1236099E3,1.4058374E1,1.997705E2,7.129617E-2,3.3883236E1,1.6798071E0,4.3313324E1,2.2314253E0,2.4813211E1,-1.6610699E-2,-1.0077148E-1,-2.4914823E-2,-1.0910457E-1,1.4022414E-1,2.548488E-2,-9.041419E-2,-2.2262184E-2,-6.0530216E-2,4.369941E-2,6.57618E-2,1.22670434E-1],"split_indices":[7,2,0,0,3,2,0,0,0,7,6,7,2,0,0,0,0,0,0,0,0,0,0,0,0],"split_type":[0,0,0,0,0,0,0,0,0,0,0,0,0,0,0,0,0,0,0,0,0,0,0,0,0],"sum_hessian":[3.2468878E2,1.716546E2,1.5303418E2,1.5929097E2,1.2363632E1,1.4447316E2,8.561024E0,2.2461724E0,1.570448E2,9.240885E0,3.122748E0,2.0853453E1,1.2361971E2,1.0657178E0,7.495306E0,1.3584726E0,1.5568633E2,7.6203265E0,1.620558E0,2.0445037E0,1.0782441E0,1.0183502E1,1.06699505E1,3.0829802E1,9.278991E1],"tree_param":{"num_deleted":"0","num_feature":"8","num_nodes":"25","size_leaf_vector":"1"}},{"base_weights":[-1.0191185E-1,-9.0833044E-1,7.5780034E-1,-1.0408022E0,6.700131E-1,8.584436E-1,-9.069936E-1,1.02918565E-1,-1.0654954E0,1.1778218E0,-7.500401E-1,3.3138502E-1,1.1563568E0,-1.5838752E-2,-9.8652415E-2,-2.125789E-2,-1.07785285E-1,1.3095428E-1,1.4155385E-2,-8.7230206E-2,-2.1242213E-2,1.2515874E-1,5.909947E-3,1.2070787E-1,1.4574672E-2],"categories":[],"categories_nodes":[],"categories_segments":[],"categories_sizes":[],"default_left":[0,0,0,0,0,0,0,0,0,0,0,0,0,0,0,0,0,0,0,0,0,0,0,0,0],"id":10,"left_children":[1,3,5,7,9,11,13,-1,15,17,19,21,23,-1,-1,-1,-1,-1,-1,-1,-1,-1,-1,-1,-1],"loss_changes":[2.1372389E2,3.3944275E1,2.5789223E1,8.6150055E0,1.0200856E1,2.1799675E1,3.7933588E-1,0E0,1.3080902E0,1.166852E0,7.8569174E-2,1.3060095E1,4.4301605E0,0E0,0E0,0E0,0E0,0E0,0E0,0E0,0E0,0E0,0E0,0E0,0E0],"parents":[2147483647,0,0,1,1,2,2,3,3,4,4,5,5,6,6,8,8,9,9,10,10,11,11,12,12],"right_children":[2,4,6,8,10,12,14,-1,16,18,20,22,24,-1,-1,-1,-1,-1,-1,-1,-1,-1,-1,-1,-1],"split_conditions":[1.7159001E0,2.4307804E1,1.9232242E2,2.0051498E1,3.1236099E3,2.4813211E1,1.997705E2,1.02918565E-1,3.3883236E1,1.9057903E1,4.3313324E1,5.7594254E1,2.0049338E2,-1.5838752E-2,-9.8652415E-2,-2.125789E-2,-1.07785285E-1,1.3095428E-1,1.4155385E-2,-8.7230206E-2,-2.1242213E-2,1.2515874E-1,5.909947E-3,1.2070787E-1,1.4574672E-2],"split_indices":[7,2,0,0,3,2,0,0,0,6,6,1,4,0,0,0,0,0,0,0,0,0,0,0,0],"split_type":[0,0,0,0,0,0,0,0,0,0,0,0,0,0,0,0,0,0,0,0,0,0,0,0,0],"sum_hessian":[3.06283E2,1.5801076E2,1.4827222E2,1.4608987E2,1.1920879E1,1.4027632E2,7.9958987E0,1.2426338E0,1.4484724E2,8.9065075E0,3.0143723E0,5.141929E1,8.885703E1,1.0551832E0,6.9407153E0,2.328614E0,1.4251863E2,7.6680965E0,1.2384105E0,1.9486831E0,1.0656893E0,1.0919546E1,4.049974E1,8.442537E1,4.4316673E0],"tree_param":{"num_deleted":"0","num_feature":"8","num_nodes":"25","size_leaf_vector":"1"}},{"base_weights":[-9.809429E-2,-8.92675E-1,7.065023E-1,-1.0428597E0,4.9013492E-1,-1.8241267E-1,8.822167E-1,4.3027293E-2,-1.0657103E0,1.2791868E0,-5.3160495E-1,-5.540258E-1,5.1775837E-1,9.599836E-1,-9.1338515E-2,-2.2724954E-2,-1.072477E-1,1.3614316E-1,3.8428914E-2,-1.0178113E-1,5.695926E-2,9.058745E-2,-9.369233E-2,1.0130159E-1,-9.33361E-2,6.3698344E-2,1.1493321E-1],"categories":[],"categories_nodes":[],"categories_segments":[],"categories_sizes":[],"default_left":[0,0,0,0,0,0,0,0,0,0,0,0,0,0,0,0,0,0,0,0,0,0,0,0,0,0,0],"id":11,"left_children":[1,3,5,7,9,11,13,-1,15,17,19,21,23,25,-1,-1,-1,-1,-1,-1,-1,-1,-1,-1,-1,-1,-1],"loss_changes":[1.8600371E2,3.0899918E1,2.2751053E1,4.9124146E0,1.2785755E1,6.713375E0,1.77631E1,0E0,4.971161E-1,1.2201309E-1,4.4611883E0,1.0138292E1,7.471594E0,6.3866425E0,0E0,0E0,0E0,0E0,0E0,0E0,0E0,0E0,0E0,0E0,0E0,0E0,0E0],"parents":[2147483647,0,0,1,1,2,2,3,3,4,4,5,5,6,6,8,8,9,9,10,10,11,11,12,12,13,13],"right_children":[2,4,6,8,10,12,14,-1,16,18,20,22,24,26,-1,-1,-1,-1,-1,-1,-1,-1,-1,-1,-1,-1,-1],"split_conditions":[1.7159001E0,2.1985424E1,1.4058374E1,2.786113E1,2.6270488E3,2.6995212E3,1.9232242E2,4.3027293E-2,3.3883236E1,1.6798071E0,2.9334736E1,4.3593376E1,5.286268E3,2.2581713E0,-9.1338515E-2,-2.2724954E-2,-1.072477E-1,1.3614316E-1,3.8428914E-2,-1.0178113E-1,5.695926E-2,9.058745E-2,-9.369233E-2,1.0130159E-1,-9.33361E-2,6.3698344E-2,1.1493321E-1],"split_indices":[7,2,2,0,3,3,0,0,0,7,2,0,3,7,0,0,0,0,0,0,0,0,0,0,0,0,0],"split_type":[0,0,0,0,0,0,0,0,0,0,0,0,0,0,0,0,0,0,0,0,0,0,0,0,0,0,0],"sum_hessian":[2.8895483E2,1.4532722E2,1.4362761E2,1.3131154E2,1.4015685E1,2.3699085E1,1.1992853E2,1.733393E0,1.2957814E2,7.7661815E0,6.2495036E0,1.5618403E1,8.080682E0,1.15396126E2,4.532397E0,1.3142366E0,1.282639E2,6.635066E0,1.1311157E0,4.3878717E0,1.8616319E0,2.961405E0,1.2656999E1,6.249631E0,1.8310508E0,4.4259727E1,7.11364E1],"tree_param":{"num_deleted":"0","num_feature":"8","num_nodes":"27","size_leaf_vector":"1"}},{"base_weights":[-9.4806805E-2,-8.777569E-1,6.5931755E-1,-1.0359485E0,4.2766523E-1,1.7172682E-1,9.725053E-1,4.7636822E-2,-1.0619277E-1,1.1629359E0,-5.342288E-1,1.0942243E0,-7.028968E-2,1.0443563E0,-8.1056535E-2,-7.857218E-2,8.864716E-2,1.2503517E-1,3.2086194E-2,-9.950486E-2,5.357318E-2,1.3338816E-1,-3.240076E-2,-9.0204045E-2,4.745255E-2,1.0969118E-1,7.6504285E-3],"categories":[],"categories_nodes":[],"categories_segments":[],"categories_sizes":[],"default_left":[0,0,0,0,0,0,0,0,0,0,0,0,0,0,0,0,0,0,0,0,0,0,0,0,0,0,0],"id":12,"left_children":[1,3,5,7,9,11,13,15,-1,17,19,21,23,25,-1,-1,-1,-1,-1,-1,-1,-1,-1,-1,-1,-1,-1],"loss_changes":[1.6200249E2,2.8231178E1,2.1186405E1,3.4374237E0,1.1408107E1,1.2557877E1,1.1727203E1,3.3347468E0,0E0,2.582817E-1,4.1288633E0,4.401601E0,2.0921686E1,4.09095E0,0E0,0E0,0E0,0E0,0E0,0E0,0E0,0E0,0E0,0E0,0E0,0E0,0E0],"parents":[2147483647,0,0,1,1,2,2,3,3,4,4,5,5,6,6,7,7,9,9,10,10,11,11,12,12,13,13],"right_children":[2,4,6,8,10,12,14,16,-1,18,20,22,24,26,-1,-1,-1,-1,-1,-1,-1,-1,-1,-1,-1,-1,-1],"split_conditions":[1.7159001E0,2.1432213E1,2.4813211E1,3.3883236E1,2.6270488E3,5.7594254E1,1.8606006E2,1.3973613E0,-1.0619277E-1,1.6798071E0,2.9334736E1,1.7785759E3,9.329007E1,2.0049338E2,-8.1056535E-2,-7.857218E-2,8.864716E-2,1.2503517E-1,3.2086194E-2,-9.950486E-2,5.357318E-2,1.3338816E-1,-3.240076E-2,-9.0204045E-2,4.745255E-2,1.0969118E-1,7.6504285E-3],"split_indices":[7,2,2,0,3,1,0,7,0,7,2,3,0,4,0,0,0,0,0,0,0,0,0,0,0,0,0],"split_type":[0,0,0,0,0,0,0,0,0,0,0,0,0,0,0,0,0,0,0,0,0,0,0,0,0,0,0],"sum_hessian":[2.7239493E2,1.3356284E2,1.388321E2,1.193111E2,1.4251744E1,5.4903362E1,8.392874E1,2.7740164E0,1.1653708E2,7.9589367E0,6.292808E0,1.0678542E1,4.422482E1,8.107597E1,2.852764E0,1.4233129E0,1.3507035E0,6.771173E0,1.1877638E0,4.4473844E0,1.8454236E0,9.185777E0,1.4927652E0,1.7243729E1,2.6981092E1,7.6773735E1,4.3022437E0],"tree_param":{"num_deleted":"0","num_feature":"8","num_nodes":"27","size_leaf_vector":"1"}},{"base_weights":[-9.1400914E-2,-9.475174E-1,5.500422E-1,-1.054888E-1,5.425235E-1,6.593816E-1,-9.221015E-1,1.1573696E-1,-4.9773073E-1,1.9322656E-1,9.724136E-1,-1.3551297E-2,-9.904952E-2,-6.996798E-2,1.6308842E-3,1.2262372E-1,-2.7114786E-3,9.9868156E-2,-4.5214307E-2],"categories":[],"categories_nodes":[],"categories_segments":[],"categories_sizes":[],"default_left":[0,0,0,0,0,0,0,0,0,0,0,0,0,0,0,0,0,0,0],"id":13,"left_children":[1,3,5,-1,7,9,11,-1,13,15,17,-1,-1,-1,-1,-1,-1,-1,-1],"loss_changes":[1.4208727E2,1.8296555E1,2.443145E1,0E0,5.7611933E0,2.0001171E1,4.3870068E-1,0E0,3.966353E-1,1.2968896E1,3.5396347E0,0E0,0E0,0E0,0E0,0E0,0E0,0E0,0E0],"parents":[2147483647,0,0,1,1,2,2,4,4,5,5,6,6,8,8,9,9,10,10],"right_children":[2,4,6,-1,8,10,12,-1,14,16,18,-1,-1,-1,-1,-1,-1,-1,-1],"split_conditions":[1.5500438E0,2.1432213E1,1.9232242E2,-1.054888E-1,2.6686655E3,2.4813211E1,1.997705E2,1.1573696E-1,2.5932245E1,3.3883236E1,2.1430022E2,-1.3551297E-2,-9.904952E-2,-6.996798E-2,1.6308842E-3,1.2262372E-1,-2.7114786E-3,9.9868156E-2,-4.5214307E-2],"split_indices":[7,2,0,0,3,2,0,0,2,0,4,0,0,0,0,0,0,0,0],"split_type":[0,0,0,0,0,0,0,0,0,0,0,0,0,0,0,0,0,0,0],"sum_hessian":[2.567913E2,1.09785904E2,1.4700539E2,1.02679016E2,7.1068883E0,1.3735576E2,9.649624E0,4.396021E0,2.7108674E0,5.5831264E1,8.152449E1,1.0104073E0,8.639216E0,1.6869725E0,1.023895E0,9.012664E0,4.6818604E1,8.034198E1,1.1825067E0],"tree_param":{"num_deleted":"0","num_feature":"8","num_nodes":"19","size_leaf_vector":"1"}},{"base_weights":[-8.825974E-2,-8.020976E-1,6.2884873E-1,-1.0112904E0,3.196709E-1,1.9305648E-1,9.178684E-1,9.5839016E-2,-1.0383185E-1,1.144027E0,-6.734164E-1,3.147164E-1,-9.660907E-1,9.820378E-1,-7.5092696E-2,-6.883654E-2,7.5624906E-2,1.2429494E-1,8.402329E-3,-1.11255765E-1,5.3730186E-2,-1.1714961E-2,7.704708E-2,-1.1366607E-1,-3.2450657E-2,1.03255086E-1,5.6126365E-4],"categories":[],"categories_nodes":[],"categories_segments":[],"categories_sizes":[],"default_left":[0,0,0,0,0,0,0,0,0,0,0,0,0,0,0,0,0,0,0,0,0,0,0,0,0,0,0],"id":14,"left_children":[1,3,5,7,9,11,13,15,-1,17,19,21,23,25,-1,-1,-1,-1,-1,-1,-1,-1,-1,-1,-1,-1,-1],"loss_changes":[1.2515338E2,2.9062645E1,1.5193256E1,3.1954117E0,1.7150785E1,7.344903E0,8.566074E0,2.271615E0,0E0,1.0808525E0,5.75774E0,9.132254E0,1.7702675E-1,3.4878235E0,0E0,0E0,0E0,0E0,0E0,0E0,0E0,0E0,0E0,0E0,0E0,0E0,0E0],"parents":[2147483647,0,0,1,1,2,2,3,3,4,4,5,5,6,6,7,7,9,9,10,10,11,11,12,12,13,13],"right_children":[2,4,6,8,10,12,14,16,-1,18,20,22,24,26,-1,-1,-1,-1,-1,-1,-1,-1,-1,-1,-1,-1,-1],"split_conditions":[1.7861129E0,2.0815735E1,2.4813211E1,3.3883236E1,2.5884492E3,5.286268E3,1.8606006E2,1.3973613E0,-1.0383185E-1,1.9057903E1,3.27104E1,2.2581713E0,1.7080835E1,2.0049338E2,-7.5092696E-2,-6.883654E-2,7.5624906E-2,1.2429494E-1,8.402329E-3,-1.11255765E-1,5.3730186E-2,-1.1714961E-2,7.704708E-2,-1.1366607E-1,-3.2450657E-2,1.03255086E-1,5.6126365E-4],"split_indices":[7,2,2,0,3,3,0,7,0,6,2,7,2,4,0,0,0,0,0,0,0,0,0,0,0,0,0],"split_type":[0,0,0,0,0,0,0,0,0,0,0,0,0,0,0,0,0,0,0,0,0,0,0,0,0,0,0],"sum_hessian":[2.42503E2,1.21469246E2,1.2103377E2,1.0246042E2,1.900883E1,4.892747E1,7.210629E1,2.3810601E0,1.0007935E2,1.0303753E1,8.705077E0,4.4939297E1,3.9881737E0,6.983258E1,2.273713E0,1.0691577E0,1.3119023E0,9.266398E0,1.037355E0,6.4475527E0,2.2575243E0,2.3455845E1,2.1483452E1,2.5409858E0,1.4471878E0,6.634301E1,3.4895728E0],"tree_param":{"num_deleted":"0","num_feature":"8","num_nodes":"27","size_leaf_vector":"1"}},{"base_weights":[-8.566209E-2,-9.548825E-1,4.623019E-1,-1.0487671E-1,4.4328454E-1,5.708442E-1,-9.086612E-1,1.0553564E-1,-4.23789E-1,-1.7528631E-1,7.4581206E-1,-2.7584687E-2,-9.725539E-2,-5.9753638E-2,-4.988475E-3,-5.5223197E-2,3.9580613E-2,4.5717333E-2,9.696119E-2],"categories":[],"categories_nodes":[],"categories_segments":[],"categories_sizes":[],"default_left":[0,0,0,0,0,0,0,0,0,0,0,0,0,0,0,0,0,0,0],"id":15,"left_children":[1,3,5,-1,7,9,11,-1,13,15,17,-1,-1,-1,-1,-1,-1,-1,-1],"loss_changes":[1.09893906E2,1.2171059E1,2.159251E1,0E0,3.7983189E0,1.7342613E1,1.6740036E-1,0E0,1.862883E-1,5.7841725E0,6.4678955E0,0E0,0E0,0E0,0E0,0E0,0E0,0E0,0E0],"parents":[2147483647,0,0,1,1,2,2,4,4,5,5,6,6,8,8,9,9,10,10],"right_children":[2,4,6,-1,8,10,12,-1,14,16,18,-1,-1,-1,-1,-1,-1,-1,-1],"split_conditions":[1.4753468E0,2.1432213E1,1.9232242E2,-1.0487671E-1,2.6686655E3,1.4825468E1,2.0528452E2,1.0553564E-1,1.2712452E0,9.329007E1,2.2581713E0,-2.7584687E-2,-9.725539E-2,-5.9753638E-2,-4.988475E-3,-5.5223197E-2,3.9580613E-2,4.5717333E-2,9.696119E-2],"split_indices":[7,2,0,0,3,2,0,0,7,0,7,0,0,0,0,0,0,0,0],"split_type":[0,0,0,0,0,0,0,0,0,0,0,0,0,0,0,0,0,0,0],"sum_hessian":[2.2879659E2,8.817862E1,1.4061795E2,8.286432E1,5.3143015E0,1.3084248E2,9.775478E0,2.9879467E0,2.3263547E0,2.4853926E1,1.05988556E2,1.3841118E0,8.391367E0,1.1799506E0,1.1464043E0,1.4991749E1,9.862177E0,4.7617798E1,5.8370754E1],"tree_param":{"num_deleted":"0","num_feature":"8","num_nodes":"19","size_leaf_vector":"1"}},{"base_weights":[-8.295062E-2,-9.4469845E-1,4.3058816E-1,-1.0417242E-1,4.1771573E-1,1.4402378E-2,7.7711135E-1,1.0548208E-1,-3.5642284E-1,1.1157349E0,-1.7683196E-1,8.4622777E-1,-7.8426614E-2,-6.511124E-2,1.6922113E-2,1.17006935E-2,1.2467408E-1,-5.797261E-2,4.231445E-2,8.7493755E-2,-4.8528284E-2],"categories":[],"categories_nodes":[],"categories_segments":[],"categories_sizes":[],"default_left":[0,0,0,0,0,0,0,0,0,0,0,0,0,0,0,0,0,0,0,0,0],"id":16,"left_children":[1,3,5,-1,7,9,11,-1,13,15,17,19,-1,-1,-1,-1,-1,-1,-1,-1,-1],"loss_changes":[9.6750336E1,1.1222488E1,1.9761108E1,0E0,3.403778E0,1.3530727E1,8.735001E0,0E0,6.552661E-1,1.0975075E0,1.3493079E1,3.180893E0,0E0,0E0,0E0,0E0,0E0,0E0,0E0,0E0,0E0],"parents":[2147483647,0,0,1,1,2,2,4,4,5,5,6,6,8,8,9,9,10,10,11,11],"right_children":[2,4,6,-1,8,10,12,-1,14,16,18,20,-1,-1,-1,-1,-1,-1,-1,-1,-1],"split_conditions":[1.4753468E0,2.1432213E1,2.4813211E1,-1.0417242E-1,2.1588047E3,3.3883236E1,1.8606006E2,1.0548208E-1,2.6479486E1,1.1943818E1,2.2581713E0,2.1430022E2,-7.8426614E-2,-6.511124E-2,1.6922113E-2,1.17006935E-2,1.2467408E-1,-5.797261E-2,4.231445E-2,8.7493755E-2,-4.8528284E-2],"split_indices":[7,2,2,0,3,0,0,0,2,2,7,4,0,0,0,0,0,0,0,0,0],"split_type":[0,0,0,0,0,0,0,0,0,0,0,0,0,0,0,0,0,0,0,0,0],"sum_hessian":[2.1670541E2,8.060536E1,1.3610005E2,7.546633E1,5.139029E0,6.2307842E1,7.3792206E1,2.6201274E0,2.5189016E0,8.503157E0,5.3804684E1,7.1102776E1,2.689432E0,1.461085E0,1.0578166E0,1.2055728E0,7.2975836E0,3.2209335E1,2.159535E1,6.993769E1,1.1650839E0],"tree_param":{"num_deleted":"0","num_feature":"8","num_nodes":"21","size_leaf_vector":"1"}},{"base_weights":[-7.982085E-2,-9.3481106E-1,4.0373835E-1,-1.0351696E-1,3.9817834E-1,9.975656E-2,8.413966E-1,9.6884325E-2,-3.9509204E-1,1.0968373E0,-6.933311E-2,1.1831614E-1,5.135078E-1,-5.680216E-2,-3.983819E-3,1.1068504E-2,1.2011025E-1,-6.736051E-2,3.360977E-2,-1.1670903E-1,9.305656E-2],"categories":[],"categories_nodes":[],"categories_segments":[],"categories_sizes":[],"default_left":[0,0,0,0,0,0,0,0,0,0,0,0,0,0,0,0,0,0,0,0,0],"id":17,"left_children":[1,3,5,-1,7,9,11,-1,13,15,17,-1,19,-1,-1,-1,-1,-1,-1,-1,-1],"loss_changes":[8.54654E1,1.03986435E1,1.7498053E1,0E0,3.075833E0,1.3415772E1,5.4474335E0,0E0,1.7391995E-1,1.0527773E0,1.7030432E1,0E0,2.165289E1,0E0,0E0,0E0,0E0,0E0,0E0,0E0,0E0],"parents":[2147483647,0,0,1,1,2,2,4,4,5,5,6,6,8,8,9,9,10,10,12,12],"right_children":[2,4,6,-1,8,10,12,-1,14,16,18,-1,20,-1,-1,-1,-1,-1,-1,-1,-1],"split_conditions":[1.4753468E0,2.1432213E1,3.2051865E1,-1.0351696E-1,2.6686655E3,3.3883236E1,4.0737402E3,9.6884325E-2,1.2712452E0,1.1943818E1,9.329007E1,1.1831614E-1,5.6520214E1,-5.680216E-2,-3.983819E-3,1.1068504E-2,1.2011025E-1,-6.736051E-2,3.360977E-2,-1.1670903E-1,9.305656E-2],"split_indices":[7,2,2,0,3,0,3,0,7,2,0,0,2,0,0,0,0,0,0,0,0],"split_type":[0,0,0,0,0,0,0,0,0,0,0,0,0,0,0,0,0,0,0,0,0],"sum_hessian":[2.0480571E2,7.36502E1,1.3115552E2,6.8701225E1,4.948975E0,7.8122406E1,5.3033104E1,2.749619E0,2.199356E0,1.0531861E1,6.7590546E1,2.468991E1,2.8343193E1,1.0764478E0,1.1229081E0,1.2041782E0,9.327683E0,2.6874357E1,4.071619E1,5.2776613E0,2.3065533E1],"tree_param":{"num_deleted":"0","num_feature":"8","num_nodes":"21","size_leaf_vector":"1"}},{"base_weights":[-7.566363E-2,-9.25073E-1,3.7761554E-1,-1.0290239E-1,3.7506908E-1,4.729205E-1,-9.570278E-2,1.0339814E-1,-2.9553145E-1,-6.985099E-1,5.62449E-1,-6.9623366E-2,3.7987288E-2,-9.692916E-2,-5.6773294E-3,2.7328705E-2,8.1093356E-2],"categories":[],"categories_nodes":[],"categories_segments":[],"categories_sizes":[],"default_left":[0,0,0,0,0,0,0,0,0,0,0,0,0,0,0,0,0],"id":18,"left_children":[1,3,5,-1,7,9,-1,-1,11,13,15,-1,-1,-1,-1,-1,-1],"loss_changes":[7.561673E1,9.61837E0,1.6756592E1,0E0,2.8641098E0,1.3009953E1,0E0,0E0,1.2515994E0,1.5067654E0,7.848583E0,0E0,0E0,0E0,0E0,0E0,0E0],"parents":[2147483647,0,0,1,1,2,2,4,4,5,5,8,8,9,9,10,10],"right_children":[2,4,6,-1,8,10,-1,-1,12,14,16,-1,-1,-1,-1,-1,-1],"split_conditions":[1.4753468E0,2.1432213E1,1.997705E2,-1.0290239E-1,2.1144263E3,6.3779564E0,-9.570278E-2,1.0339814E-1,2.7052973E1,2.546333E3,2.2581713E0,-6.9623366E-2,3.7987288E-2,-9.692916E-2,-5.6773294E-3,2.7328705E-2,8.1093356E-2],"split_indices":[7,2,0,0,3,2,0,0,2,3,7,0,0,0,0,0,0],"split_type":[0,0,0,0,0,0,0,0,0,0,0,0,0,0,0,0,0],"sum_hessian":[1.9448982E2,6.731186E1,1.2717796E2,6.2521576E1,4.7902865E0,1.19304276E2,7.873688E0,2.1428812E0,2.6474051E0,7.9876885E0,1.1131658E2,1.6422534E0,1.0051519E0,5.2584553E0,2.729233E0,5.2417767E1,5.889882E1],"tree_param":{"num_deleted":"0","num_feature":"8","num_nodes":"17","size_leaf_vector":"1"}},{"base_weights":[-7.349149E-2,-9.155759E-1,3.4924096E-1,-1.0232156E-1,3.6303705E-1,6.930469E-2,7.816536E-1,1.00028954E-1,-2.8258213E-1,8.365195E-1,-1.3495569E-1,1.14296496E-1,4.4146323E-1,-6.769605E-2,3.6128737E-2,1.0865356E-1,-9.222343E-2,-9.216068E-2,2.8773297E-2,-1.11183934E-1,8.6731404E-2],"categories":[],"categories_nodes":[],"categories_segments":[],"categories_sizes":[],"default_left":[0,0,0,0,0,0,0,0,0,0,0,0,0,0,0,0,0,0,0,0,0],"id":19,"left_children":[1,3,5,-1,7,9,11,-1,13,15,17,-1,19,-1,-1,-1,-1,-1,-1,-1,-1],"loss_changes":[6.656244E1,8.969315E0,1.5030379E1,0E0,2.582047E0,1.2139305E1,5.5027504E0,0E0,1.1475286E0,8.158254E0,2.0703716E1,0E0,1.8693203E1,0E0,0E0,0E0,0E0,0E0,0E0,0E0,0E0],"parents":[2147483647,0,0,1,1,2,2,4,4,5,5,6,6,8,8,9,9,10,10,12,12],"right_children":[2,4,6,-1,8,10,12,-1,14,16,18,-1,20,-1,-1,-1,-1,-1,-1,-1,-1],"split_conditions":[1.4753468E0,2.1432213E1,3.2051865E1,-1.0232156E-1,2.1144263E3,4.405442E1,4.0737402E3,1.00028954E-1,2.7052973E1,2.567269E3,9.329007E1,1.14296496E-1,5.6520214E1,-6.769605E-2,3.6128737E-2,1.0865356E-1,-9.222343E-2,-9.216068E-2,2.8773297E-2,-1.11183934E-1,8.6731404E-2],"split_indices":[7,2,2,0,3,0,3,0,2,3,0,0,2,0,0,0,0,0,0,0,0],"split_type":[0,0,0,0,0,0,0,0,0,0,0,0,0,0,0,0,0,0,0,0,0],"sum_hessian":[1.8508731E2,6.1471004E1,1.236163E2,5.6882145E1,4.588861E0,7.574233E1,4.7873966E1,2.0329282E0,2.5559325E0,1.5274605E1,6.046773E1,2.2071917E1,2.5802048E1,1.5531899E0,1.0027426E0,1.3708135E1,1.5664704E0,2.0722137E1,3.9745594E1,5.205172E0,2.0596874E1],"tree_param":{"num_deleted":"0","num_feature":"8","num_nodes":"21","size_leaf_vector":"1"}},{"base_weights":[-7.021884E-2,-9.0613425E-1,3.2630813E-1,-1.0176801E-1,3.5137087E-1,4.1715133E-1,-9.449265E-2,9.684154E-2,-2.7047268E-1,8.9474656E-2,7.0501876E-1,-6.582893E-2,3.436099E-2,-1.2757845E-2,9.565478E-2,7.351598E-2,-4.502286E-2],"categories":[],"categories_nodes":[],"categories_segments":[],"categories_sizes":[],"default_left":[0,0,0,0,0,0,0,0,0,0,0,0,0,0,0,0,0],"id":20,"left_children":[1,3,5,-1,7,9,-1,-1,11,13,15,-1,-1,-1,-1,-1,-1],"loss_changes":[5.8888447E1,8.372425E0,1.4325036E1,0E0,2.3334918E0,1.0622284E1,0E0,0E0,1.0527333E0,1.0307851E1,2.4256935E0,0E0,0E0,0E0,0E0,0E0,0E0],"parents":[2147483647,0,0,1,1,2,2,4,4,5,5,8,8,9,9,10,10],"right_children":[2,4,6,-1,8,10,-1,-1,12,14,16,-1,-1,-1,-1,-1,-1],"split_conditions":[1.4753468E0,2.1432213E1,1.997705E2,-1.0176801E-1,2.1144263E3,2.4813211E1,-9.449265E-2,9.684154E-2,2.7052973E1,1.6886308E2,2.1430022E2,-6.582893E-2,3.436099E-2,-1.2757845E-2,9.565478E-2,7.351598E-2,-4.502286E-2],"split_indices":[7,2,0,0,3,2,0,0,2,4,4,0,0,0,0,0,0],"split_type":[0,0,0,0,0,0,0,0,0,0,0,0,0,0,0,0,0],"sum_hessian":[1.7577016E2,5.6138927E1,1.1963122E2,5.174009E1,4.398839E0,1.1227951E2,7.351709E0,1.9281954E0,2.4706438E0,5.3122036E1,5.9157475E1,1.4701806E0,1.0004632E0,4.3168575E1,9.953461E0,5.8007656E1,1.1498191E0],"tree_param":{"num_deleted":"0","num_feature":"8","num_nodes":"17","size_leaf_vector":"1"}},{"base_weights":[-6.7398824E-2,-9.889403E-1,2.6793602E-1,-1.0109072E-1,-3.6184222E-3,3.793577E-1,-8.9417607E-1,-5.3163326E-1,4.906837E-1,-1.5877357E-2,-9.551335E-2,-9.076003E-2,1.2431504E-2,2.6595477E-2,8.348943E-2],"categories":[],"categories_nodes":[],"categories_segments":[],"categories_sizes":[],"default_left":[0,0,0,0,0,0,0,0,0,0,0,0,0,0,0],"id":21,"left_children":[1,3,5,-1,-1,7,9,11,13,-1,-1,-1,-1,-1,-1],"loss_changes":[5.2340675E1,9.088516E-1,1.6439682E1,0E0,0E0,1.1839256E1,3.4937954E-1,3.297168E0,7.6877213E0,0E0,0E0,0E0,0E0,0E0,0E0],"parents":[2147483647,0,0,1,1,2,2,5,5,6,6,7,7,8,8],"right_children":[2,4,6,-1,-1,8,10,12,14,-1,-1,-1,-1,-1,-1],"split_conditions":[1.3006018E0,2.3220198E1,1.9232242E2,-1.0109072E-1,-3.6184222E-3,9.589551E0,1.997705E2,2.2314253E0,1.18492744E2,-1.5877357E-2,-9.551335E-2,-9.076003E-2,1.2431504E-2,2.6595477E-2,8.348943E-2],"split_indices":[7,2,0,0,0,2,0,7,0,0,0,0,0,0,0],"split_type":[0,0,0,0,0,0,0,0,0,0,0,0,0,0,0],"sum_hessian":[1.6751617E2,4.4173325E1,1.2334285E2,4.3118153E1,1.0551726E0,1.131662E2,1.0176653E1,1.191219E1,1.01254005E2,1.054892E0,9.121761E0,7.328245E0,4.5839453E0,6.2331524E1,3.892248E1],"tree_param":{"num_deleted":"0","num_feature":"8","num_nodes":"15","size_leaf_vector":"1"}},{"base_weights":[-6.567241E-2,-6.1792094E-1,4.5423657E-1,8.3692735E-1,-7.915729E-1,-5.690783E-1,5.367251E-1,-2.494716E-2,1.0219977E0,-9.227178E-1,6.5991807E-1,-8.728397E-2,-9.242197E-2,6.0616326E-1,-2.1382464E-1,1.1409401E-1,1.63187E-2,-1.0113813E-1,-3.1457577E-2,9.672363E-2,-3.8205065E-2,9.94431E-2,-9.203733E-2,6.4408496E-2,-6.555801E-2,7.5873695E-2,-6.886932E-2],"categories":[],"categories_nodes":[],"categories_segments":[],"categories_sizes":[],"default_left":[0,0,0,0,0,0,0,0,0,0,0,0,0,0,0,0,0,0,0,0,0,0,0,0,0,0,0],"id":22,"left_children":[1,3,5,7,9,11,13,-1,15,17,19,-1,21,23,25,-1,-1,-1,-1,-1,-1,-1,-1,-1,-1,-1,-1],"loss_changes":[4.6589813E1,2.0528788E1,7.3667583E0,2.0386124E0,1.4079327E1,8.9312506E-1,4.190958E0,0E0,6.081419E-1,3.2037659E0,2.4339366E0,0E0,4.2773247E0,3.8476143E0,3.911652E0,0E0,0E0,0E0,0E0,0E0,0E0,0E0,0E0,0E0,0E0,0E0,0E0],"parents":[2147483647,0,0,1,1,2,2,3,3,4,4,5,5,6,6,8,8,9,9,10,10,12,12,13,13,14,14],"right_children":[2,4,6,8,10,12,14,-1,16,18,20,-1,22,24,26,-1,-1,-1,-1,-1,-1,-1,-1,-1,-1,-1,-1],"split_conditions":[1.9175502E0,3.4455967E1,7.1644144E0,1.3297791E0,3.2051865E1,2.6995212E3,4.818474E1,-2.494716E-2,1.9841157E3,2.2337372E1,3.2719531E3,-8.728397E-2,3.054982E3,1.997705E2,5.9226723E1,1.1409401E-1,1.63187E-2,-1.0113813E-1,-3.1457577E-2,9.672363E-2,-3.8205065E-2,9.94431E-2,-9.203733E-2,6.4408496E-2,-6.555801E-2,7.5873695E-2,-6.886932E-2],"split_indices":[7,0,2,7,2,3,6,0,3,2,3,0,3,0,0,0,0,0,0,0,0,0,0,0,0,0,0],"split_type":[0,0,0,0,0,0,0,0,0,0,0,0,0,0,0,0,0,0,0,0,0,0,0,0,0,0,0],"sum_hessian":[1.6028899E2,7.763567E1,8.265331E1,7.8712373E0,6.976444E1,5.725576E0,7.692774E1,1.0950568E0,6.7761803E0,6.431753E1,5.44691E0,2.989359E0,2.736217E0,7.058943E1,6.3383055E0,5.6633186E0,1.1128619E0,5.555489E1,8.762639E0,4.2616897E0,1.1852202E0,1.0961825E0,1.6400346E0,6.900502E1,1.5844151E0,1.8833334E0,4.4549723E0],"tree_param":{"num_deleted":"0","num_feature":"8","num_nodes":"27","size_leaf_vector":"1"}},{"base_weights":[-6.341549E-2,-9.7386867E-1,2.3141867E-1,-1.0006305E-1,-1.8686563E-3,-2.3078237E-2,6.915502E-1,9.2230946E-1,-1.7187431E-1,1.0810895E-1,3.4101304E-1,-2.1207875E-2,1.064595E-1,-7.082033E-2,1.6000519E-2,8.7906085E-2,-1.02195956E-1],"categories":[],"categories_nodes":[],"categories_segments":[],"categories_sizes":[],"default_left":[0,0,0,0,0,0,0,0,0,0,0,0,0,0,0,0,0],"id":23,"left_children":[1,3,5,-1,-1,7,9,11,13,-1,15,-1,-1,-1,-1,-1,-1],"loss_changes":[4.1435444E1,9.4618225E-1,1.3690571E1,0E0,0E0,1.0871432E1,5.3143005E0,1.9227209E0,1.1975524E1,0E0,1.8034313E1,0E0,0E0,0E0,0E0,0E0,0E0],"parents":[2147483647,0,0,1,1,2,2,5,5,6,6,7,7,8,8,10,10],"right_children":[2,4,6,-1,-1,8,10,12,14,-1,16,-1,-1,-1,-1,-1,-1],"split_conditions":[1.3006018E0,2.3220198E1,3.2051865E1,-1.0006305E-1,-1.8686563E-3,3.3883236E1,4.0737402E3,1.1802063E1,1.9380779E0,1.0810895E-1,8.822253E1,-2.1207875E-2,1.064595E-1,-7.082033E-2,1.6000519E-2,8.7906085E-2,-1.02195956E-1],"split_indices":[7,2,2,0,0,0,3,2,7,0,0,0,0,0,0,0,0],"split_type":[0,0,0,0,0,0,0,0,0,0,0,0,0,0,0,0,0],"sum_hessian":[1.5252107E2,3.674592E1,1.1577516E2,3.5698162E1,1.0477554E0,7.5156334E1,4.0618824E1,9.513443E0,6.564289E1,1.8251974E1,2.236685E1,1.0056069E0,8.507836E0,2.4659061E1,4.0983833E1,1.6290892E1,6.075959E0],"tree_param":{"num_deleted":"0","num_feature":"8","num_nodes":"17","size_leaf_vector":"1"}},{"base_weights":[-5.982641E-2,-9.6624476E-1,2.1724968E-1,-9.953997E-2,-1.7733608E-3,1.355269E-2,7.43858E-1,1.6135284E-1,-1.228033E0,8.932063E-1,-2.8127974E-2,-1.3263265E-2,6.1594095E-2,-6.746021E-2,-1.7245816E-1,1.01342574E-1,4.304641E-2,8.02005E-2,-6.988158E-2],"categories":[],"categories_nodes":[],"categories_segments":[],"categories_sizes":[],"default_left":[0,0,0,0,0,0,0,0,0,0,0,0,0,0,0,0,0,0,0],"id":24,"left_children":[1,3,5,-1,-1,7,9,11,13,15,17,-1,-1,-1,-1,-1,-1,-1,-1],"loss_changes":[3.7038292E1,9.3680954E-1,1.212479E1,0E0,0E0,1.535423E1,3.6609058E0,1.0063364E1,1.2829247E0,1.0353718E0,3.9462423E0,0E0,0E0,0E0,0E0,0E0,0E0,0E0,0E0],"parents":[2147483647,0,0,1,1,2,2,5,5,6,6,7,7,8,8,9,9,10,10],"right_children":[2,4,6,-1,-1,8,10,12,14,16,18,-1,-1,-1,-1,-1,-1,-1,-1],"split_conditions":[1.3006018E0,2.3220198E1,3.7851376E1,-9.953997E-2,-1.7733608E-3,4.0737402E3,1.829395E2,1.18492744E2,6.775892E3,8.424565E3,3.476792E3,-1.3263265E-2,6.1594095E-2,-6.746021E-2,-1.7245816E-1,1.01342574E-1,4.304641E-2,8.02005E-2,-6.988158E-2],"split_indices":[7,2,2,0,0,3,4,0,3,3,3,0,0,0,0,0,0,0,0],"split_type":[0,0,0,0,0,0,0,0,0,0,0,0,0,0,0,0,0,0,0],"sum_hessian":[1.456408E2,3.351466E1,1.1212613E2,3.246726E1,1.0474008E0,8.159151E1,3.0534622E1,7.368945E1,7.9020557E0,2.5453386E1,5.0812354E0,4.5179665E1,2.8509789E1,4.8523855E0,3.0496702E0,1.9259714E1,6.1936727E0,2.1832092E0,2.8980262E0],"tree_param":{"num_deleted":"0","num_feature":"8","num_nodes":"19","size_leaf_vector":"1"}},{"base_weights":[-5.714078E-2,-9.584281E-1,1.9953856E-1,-9.901702E-2,-1.6829368E-3,2.9225668E-1,-9.3012646E-2,1.117711E-1,7.428746E-1,2.542139E-2,-1.1566975E-1,8.82355E-2,2.18049E-3],"categories":[],"categories_nodes":[],"categories_segments":[],"categories_sizes":[],"default_left":[0,0,0,0,0,0,0,0,0,0,0,0,0],"id":25,"left_children":[1,3,5,-1,-1,7,-1,9,11,-1,-1,-1,-1],"loss_changes":[3.2967144E1,9.271202E-1,1.1908525E1,0E0,0E0,8.329279E0,0E0,1.3850926E1,2.938013E0,0E0,0E0,0E0,0E0],"parents":[2147483647,0,0,1,1,2,2,5,5,7,7,8,8],"right_children":[2,4,6,-1,-1,8,-1,10,12,-1,-1,-1,-1],"split_conditions":[1.3006018E0,2.3220198E1,1.997705E2,-9.901702E-2,-1.6829368E-3,3.7851376E1,-9.3012646E-2,4.0737402E3,1.829395E2,2.542139E-2,-1.1566975E-1,8.82355E-2,2.18049E-3],"split_indices":[7,2,0,0,0,2,0,3,4,0,0,0,0],"split_type":[0,0,0,0,0,0,0,0,0,0,0,0,0],"sum_hessian":[1.4067735E2,3.0577066E1,1.10100296E2,2.9530003E1,1.0470654E0,1.0243422E2,7.6660767E0,7.403078E1,2.8403437E1,6.727564E1,6.755134E0,2.3612309E1,4.7911296E0],"tree_param":{"num_deleted":"0","num_feature":"8","num_nodes":"13","size_leaf_vector":"1"}},{"base_weights":[-5.5419654E-2,-9.7191684E-2,1.7788826E-1,2.6659396E-1,-9.2171356E-2,5.1479943E-2,6.337606E-1,7.623387E-2,-2.8031785E-2,9.777542E-2,-1.3425063E-1],"categories":[],"categories_nodes":[],"categories_segments":[],"categories_sizes":[],"default_left":[0,0,0,0,0,0,0,0,0,0,0],"id":26,"left_children":[1,-1,3,5,-1,7,9,-1,-1,-1,-1],"loss_changes":[2.938345E1,0E0,1.0949364E1,8.048796E0,0E0,1.5687919E1,2.6949886E1,0E0,0E0,0E0,0E0],"parents":[2147483647,0,0,2,2,3,3,5,5,6,6],"right_children":[2,-1,4,6,-1,8,10,-1,-1,-1,-1],"split_conditions":[1.2712452E0,-9.7191684E-2,1.997705E2,1.18492744E2,-9.2171356E-2,4.405442E1,5.286268E3,7.623387E-2,-2.8031785E-2,9.777542E-2,-1.3425063E-1],"split_indices":[7,0,0,0,0,0,3,0,0,0,0],"split_type":[0,0,0,0,0,0,0,0,0,0,0],"sum_hessian":[1.3560898E2,2.6874155E1,1.08734825E2,1.0131891E2,7.4159193E0,6.460728E1,3.671163E1,2.0146626E1,4.446065E1,3.1699238E1,5.012393E0],"tree_param":{"num_deleted":"0","num_feature":"8","num_nodes":"11","size_leaf_vector":"1"}},{"base_weights":[-5.3567618E-2,-5.513602E-1,3.4514558E-1,7.5612926E-1,-7.342638E-1,2.289114E-1,9.338789E-1,9.3669623E-1,-1.6993051E-2,-9.824812E-1,3.849609E-2,4.3300244E-1,-8.369274E-1,1.00864545E-1,8.443568E-3,2.127159E-2,1.0644653E-1,-3.481598E-2,-1.00705676E-1,5.9722096E-2,-1.02643065E-1,-8.825765E-3,7.6235175E-2,-1.81503E-1,-1.832091E-2],"categories":[],"categories_nodes":[],"categories_segments":[],"categories_sizes":[],"default_left":[0,0,0,0,0,0,0,0,0,0,0,0,0,0,0,0,0,0,0,0,0,0,0,0,0],"id":27,"left_children":[1,3,5,7,9,11,13,15,-1,17,19,21,23,-1,-1,-1,-1,-1,-1,-1,-1,-1,-1,-1,-1],"loss_changes":[2.6254444E1,1.4614244E1,4.8181E0,1.4479628E0,1.0027718E1,1.4008583E1,6.641989E-1,3.843913E-1,0E0,2.6447296E-1,8.719439E0,9.219395E0,6.331855E0,0E0,0E0,0E0,0E0,0E0,0E0,0E0,0E0,0E0,0E0,0E0,0E0],"parents":[2147483647,0,0,1,1,2,2,3,3,4,4,5,5,6,6,7,7,9,9,10,10,11,11,12,12],"right_children":[2,4,6,8,10,12,14,16,-1,18,20,22,24,-1,-1,-1,-1,-1,-1,-1,-1,-1,-1,-1,-1],"split_conditions":[1.9175502E0,3.4455967E1,7.898812E1,2.1076074E3,2.2337372E1,5.286268E3,1.8914474E2,1.2281243E1,-1.6993051E-2,4.7887436E-1,3.1236099E3,9.9376724E1,2.5975566E0,1.00864545E-1,8.443568E-3,2.127159E-2,1.0644653E-1,-3.481598E-2,-1.00705676E-1,5.9722096E-2,-1.02643065E-1,-8.825765E-3,7.6235175E-2,-1.81503E-1,-1.832091E-2],"split_indices":[7,0,2,3,2,3,5,2,0,6,3,0,7,0,0,0,0,0,0,0,0,0,0,0,0],"split_type":[0,0,0,0,0,0,0,0,0,0,0,0,0,0,0,0,0,0,0,0,0,0,0,0,0],"sum_hessian":[1.3032109E2,5.778891E1,7.253217E1,6.7073407E0,5.108157E1,6.173299E1,1.0799185E1,5.6033006E0,1.1040405E0,3.8457336E1,1.2624233E1,5.2310177E1,9.422814E0,9.753297E0,1.045888E0,1.2402865E0,4.3630137E0,2.0000794E0,3.6457256E1,8.568088E0,4.056146E0,2.0537525E1,3.1772652E1,3.063176E0,6.359638E0],"tree_param":{"num_deleted":"0","num_feature":"8","num_nodes":"25","size_leaf_vector":"1"}},{"base_weights":[-5.163854E-2,-9.584354E-2,1.5462907E-1,-1.2738718E-1,4.8133105E-1,8.855467E-1,-3.1131506E-1,3.80755E-2,6.634514E-1,9.837981E-2,7.039764E-3,-8.261483E-2,1.9439397E-2,3.1908378E-2,-7.3988885E-2,7.7818155E-2,1.2604626E-2],"categories":[],"categories_nodes":[],"categories_segments":[],"categories_sizes":[],"default_left":[0,0,0,0,0,0,0,0,0,0,0,0,0,0,0,0,0],"id":28,"left_children":[1,-1,3,5,7,9,11,13,15,-1,-1,-1,-1,-1,-1,-1,-1],"loss_changes":[2.3655592E1,0E0,9.5742855E0,1.0747152E1,3.8531733E0,6.433401E-1,1.2737871E1,3.5267324E0,1.997756E0,0E0,0E0,0E0,0E0,0E0,0E0,0E0,0E0],"parents":[2147483647,0,0,2,2,3,3,4,4,5,5,6,6,7,7,8,8],"right_children":[2,-1,4,6,8,10,12,14,16,-1,-1,-1,-1,-1,-1,-1,-1],"split_conditions":[1.2712452E0,-9.584354E-2,2.2581713E0,3.3883236E1,1.7080835E1,2.3201865E3,1.11395966E2,3.318245E3,8.261644E3,9.837981E-2,7.039764E-3,-8.261483E-2,1.9439397E-2,3.1908378E-2,-7.3988885E-2,7.7818155E-2,1.2604626E-2],"split_indices":[7,0,7,0,2,3,0,3,3,0,0,0,0,0,0,0,0],"split_type":[0,0,0,0,0,0,0,0,0,0,0,0,0,0,0,0,0],"sum_hessian":[1.2467921E2,2.2429173E1,1.0225003E2,5.5205517E1,4.7044518E1,7.8974996E0,4.7308018E1,1.4052282E1,3.2992233E1,6.8633533E0,1.0341462E0,2.312854E1,2.4179478E1,1.0756703E1,3.295578E0,2.6818697E1,6.1735363E0],"tree_param":{"num_deleted":"0","num_feature":"8","num_nodes":"17","size_leaf_vector":"1"}},{"base_weights":[-4.863178E-2,-9.499754E-2,1.4401881E-1,2.3382057E-1,-8.427895E-1,7.2974965E-2,6.8319106E-1,-1.9352643E-2,-9.058291E-2,2.3011925E-2,-7.684776E-2,9.618732E-2,2.9665634E-2],"categories":[],"categories_nodes":[],"categories_segments":[],"categories_sizes":[],"default_left":[0,0,0,0,0,0,0,0,0,0,0,0,0],"id":29,"left_children":[1,-1,3,5,7,9,11,-1,-1,-1,-1,-1,-1],"loss_changes":[2.1182724E1,0E0,9.123132E0,6.6798735E0,1.7746401E-1,9.391243E0,2.3454409E0,0E0,0E0,0E0,0E0,0E0,0E0],"parents":[2147483647,0,0,2,2,3,3,4,4,5,5,6,6],"right_children":[2,-1,4,6,8,10,12,-1,-1,-1,-1,-1,-1],"split_conditions":[1.2712452E0,-9.499754E-2,1.9232242E2,3.8779987E1,1.997705E2,3.476792E3,1.5155463E2,-1.9352643E-2,-9.058291E-2,2.3011925E-2,-7.684776E-2,9.618732E-2,2.9665634E-2],"split_indices":[7,0,0,2,0,3,4,0,0,0,0,0,0],"split_type":[0,0,0,0,0,0,0,0,0,0,0,0,0],"sum_hessian":[1.2020122E2,2.0474981E1,9.9726234E1,9.2107315E1,7.618919E0,6.868494E1,2.3422379E1,1.0344753E0,6.584443E0,5.848852E1,1.0196419E1,1.2745052E1,1.0677325E1],"tree_param":{"num_deleted":"0","num_feature":"8","num_nodes":"13","size_leaf_vector":"1"}},{"base_weights":[-4.6729207E-2,-9.410006E-2,1.3197978E-1,2.1485695E-1,-8.2560915E-1,1.2172537E-2,5.867557E-1,-1.8470345E-2,-8.9241676E-2,5.1598914E-2,-4.046479E-2,9.203396E-2,-1.1659274E-1],"categories":[],"categories_nodes":[],"categories_segments":[],"categories_sizes":[],"default_left":[0,0,0,0,0,0,0,0,0,0,0,0,0],"id":30,"left_children":[1,-1,3,5,7,9,11,-1,-1,-1,-1,-1,-1],"loss_changes":[1.8912397E1,0E0,8.023076E0,6.910919E0,1.8117619E-1,1.2898016E1,1.9989124E1,0E0,0E0,0E0,0E0,0E0,0E0],"parents":[2147483647,0,0,2,2,3,3,4,4,5,5,6,6],"right_children":[2,-1,4,6,8,10,12,-1,-1,-1,-1,-1,-1],"split_conditions":[1.2712452E0,-9.410006E-2,1.9232242E2,1.18492744E2,1.997705E2,5.7944836E1,5.286268E3,-1.8470345E-2,-8.9241676E-2,5.1598914E-2,-4.046479E-2,9.203396E-2,-1.1659274E-1],"split_indices":[7,0,0,0,0,0,3,0,0,0,0,0,0],"split_type":[0,0,0,0,0,0,0,0,0,0,0,0,0],"sum_hessian":[1.165627E2,1.870352E1,9.785918E1,9.077816E1,7.081019E0,5.9424564E1,3.1353596E1,1.0238281E0,6.057191E0,2.6796885E1,3.2627678E1,2.6739273E1,4.6143236E0],"tree_param":{"num_deleted":"0","num_feature":"8","num_nodes":"13","size_leaf_vector":"1"}},{"base_weights":[-4.5667566E-2,-5.030145E-1,2.7803838E-1,6.767958E-1,-6.83794E-1,1.6549131E-1,8.895446E-1,8.5976267E-1,-1.897074E-2,-9.5573986E-1,2.6057836E-2,3.0367798E-1,-1.0901887E0,9.732946E-2,6.1788303E-3,1.8588154E-2,9.87577E-2,-2.207986E-2,-9.8733306E-2,7.641714E-2,-6.6214465E-2,-7.457446E-3,5.540839E-2,2.3381663E-2,-1.5554872E-1],"categories":[],"categories_nodes":[],"categories_segments":[],"categories_sizes":[],"default_left":[0,0,0,0,0,0,0,0,0,0,0,0,0,0,0,0,0,0,0,0,0,0,0,0,0],"id":31,"left_children":[1,3,5,7,9,11,13,15,-1,17,19,21,23,-1,-1,-1,-1,-1,-1,-1,-1,-1,-1,-1,-1],"loss_changes":[1.6945307E1,1.0572976E1,4.471722E0,1.2413149E0,8.05567E0,1.0379419E1,6.4721584E-1,3.1563997E-1,0E0,4.8100662E-1,6.8538594E0,5.0566177E0,4.034763E0,0E0,0E0,0E0,0E0,0E0,0E0,0E0,0E0,0E0,0E0,0E0,0E0],"parents":[2147483647,0,0,1,1,2,2,3,3,4,4,5,5,6,6,7,7,9,9,10,10,11,11,12,12],"right_children":[2,4,6,8,10,12,14,16,-1,18,20,22,24,-1,-1,-1,-1,-1,-1,-1,-1,-1,-1,-1,-1],"split_conditions":[1.9175502E0,3.4455967E1,7.898812E1,2.1076074E3,2.2337372E1,7.4056406E3,1.8914474E2,1.2281243E1,-1.897074E-2,4.7887436E-1,2.5884492E3,9.9376724E1,8.822253E1,9.732946E-2,6.1788303E-3,1.8588154E-2,9.87577E-2,-2.207986E-2,-9.8733306E-2,7.641714E-2,-6.6214465E-2,-7.457446E-3,5.540839E-2,2.3381663E-2,-1.5554872E-1],"split_indices":[7,0,2,3,2,3,5,2,0,6,3,0,0,0,0,0,0,0,0,0,0,0,0,0,0],"split_type":[0,0,0,0,0,0,0,0,0,0,0,0,0,0,0,0,0,0,0,0,0,0,0,0,0],"sum_hessian":[1.12515114E2,4.6402115E1,6.6113E1,5.8008204E0,4.060129E1,5.6909496E1,9.203504E0,4.7959156E0,1.0049047E0,2.9104792E1,1.1496503E1,5.1950535E1,4.958961E0,8.19821E0,1.0052937E0,1.1559035E0,3.640012E0,1.5288361E0,2.7575954E1,5.49384E0,6.0026627E0,2.0972527E1,3.097801E1,1.4189198E0,3.5400412E0],"tree_param":{"num_deleted":"0","num_feature":"8","num_nodes":"25","size_leaf_vector":"1"}},{"base_weights":[-4.3017182E-2,-9.248369E-2,1.14546314E-1,-7.509293E-2,5.304577E-1,5.014524E-1,-2.7071038E-1,9.891811E-2,1.9129921E-1,-5.542028E-2,6.804983E-2,-1.0575823E-1,6.7193382E-3,7.394196E-2,-8.184926E-2],"categories":[],"categories_nodes":[],"categories_segments":[],"categories_sizes":[],"default_left":[0,0,0,0,0,0,0,0,0,0,0,0,0,0,0],"id":32,"left_children":[1,-1,3,5,7,9,11,-1,13,-1,-1,-1,-1,-1,-1],"loss_changes":[1.5292586E1,0E0,7.4240932E0,7.4867373E0,4.3915806E0,3.5643716E0,1.3183499E1,0E0,1.0660738E1,0E0,0E0,0E0,0E0,0E0,0E0],"parents":[2147483647,0,0,2,2,3,3,4,4,5,5,6,6,8,8],"right_children":[2,-1,4,6,8,10,12,-1,14,-1,-1,-1,-1,-1,-1],"split_conditions":[1.2712452E0,-9.248369E-2,3.2051865E1,6.506277E1,4.0737402E3,9.470132E0,8.699729E1,9.891811E-2,8.822253E1,-5.542028E-2,6.804983E-2,-1.0575823E-1,6.7193382E-3,7.394196E-2,-8.184926E-2],"split_indices":[7,0,2,4,3,2,0,0,0,0,0,0,0,0,0],"split_type":[0,0,0,0,0,0,0,0,0,0,0,0,0,0,0],"sum_hessian":[1.0830161E2,1.5679595E1,9.262202E1,6.4178566E1,2.8443455E1,1.5862733E1,4.831583E1,1.1275873E1,1.7167582E1,1.996435E0,1.3866298E1,1.3875141E1,3.444069E1,1.1301058E1,5.8665237E0],"tree_param":{"num_deleted":"0","num_feature":"8","num_nodes":"15","size_leaf_vector":"1"}},{"base_weights":[-4.0913757E-2,-3.3685496E-1,4.0573272E-1,-8.3000255E-1,-3.6252305E-2,1.9567268E-1,7.4956685E-1,3.837367E-2,-9.40594E-1,3.732286E-1,-8.749931E-1,3.922941E-1,-1.2829618E-1,9.0136814E-1,1.10883065E-1,-1.0037767E-1,9.711461E-3,-4.845635E-3,7.965426E-2,-1.2381736E-1,-1.9069549E-2,-1.7265918E-3,6.655024E-2,9.6340165E-2,2.7074186E-2,7.346928E-2,-9.2264764E-2],"categories":[],"categories_nodes":[],"categories_segments":[],"categories_sizes":[],"default_left":[0,0,0,0,0,0,0,0,0,0,0,0,0,0,0,0,0,0,0,0,0,0,0,0,0,0,0],"id":33,"left_children":[1,3,5,7,9,11,13,-1,15,17,19,21,-1,23,25,-1,-1,-1,-1,-1,-1,-1,-1,-1,-1,-1,-1],"loss_changes":[1.4101174E1,9.470714E0,2.927021E0,3.612772E0,1.4361263E1,8.577098E0,1.4305563E0,0E0,1.5722218E0,5.065219E0,3.1697826E0,2.8398771E0,0E0,2.3263645E-1,3.3675008E0,0E0,0E0,0E0,0E0,0E0,0E0,0E0,0E0,0E0,0E0,0E0,0E0],"parents":[2147483647,0,0,1,1,2,2,3,3,4,4,5,5,6,6,8,8,9,9,10,10,11,11,13,13,14,14],"right_children":[2,4,6,8,10,12,14,-1,16,18,20,22,-1,24,26,-1,-1,-1,-1,-1,-1,-1,-1,-1,-1,-1,-1],"split_conditions":[2.2581713E0,1.3197346E1,3.7851376E1,4.2596275E1,2.8587856E3,6.775892E3,8.746548E3,3.837367E-2,3.1236099E3,2.1985424E1,3.27104E1,9.9376724E1,-1.2829618E-1,3.5021324E0,5.668649E1,-1.0037767E-1,9.711461E-3,-4.845635E-3,7.965426E-2,-1.2381736E-1,-1.9069549E-2,-1.7265918E-3,6.655024E-2,9.6340165E-2,2.7074186E-2,7.346928E-2,-9.2264764E-2],"split_indices":[7,2,2,4,3,3,3,0,3,2,2,0,0,7,0,0,0,0,0,0,0,0,0,0,0,0,0],"split_type":[0,0,0,0,0,0,0,0,0,0,0,0,0,0,0,0,0,0,0,0,0,0,0,0,0,0,0],"sum_hessian":[1.0464673E2,6.309004E1,4.155669E1,2.3225986E1,3.986405E1,2.6770666E1,1.4786026E1,1.7332915E0,2.1492697E1,2.715953E1,1.2704518E1,2.4277107E1,2.4935572E0,1.1614275E1,3.1717513E0,2.0290003E1,1.2026927E0,1.4049564E1,1.3109967E1,7.77085E0,4.933668E0,1.0089293E1,1.4187816E1,1.0093688E1,1.5205864E0,2.158241E0,1.0135102E0],"tree_param":{"num_deleted":"0","num_feature":"8","num_nodes":"27","size_leaf_vector":"1"}},{"base_weights":[-3.9281335E-2,-9.071792E-2,1.0050168E-1,9.8439485E-2,2.2246826E-2,-2.6084894E-1,3.4021556E-1,-6.26826E-2,1.5671968E-2,-4.0506423E-3,5.2623827E-2],"categories":[],"categories_nodes":[],"categories_segments":[],"categories_sizes":[],"default_left":[0,0,0,0,0,0,0,0,0,0,0],"id":34,"left_children":[1,-1,3,-1,5,7,9,-1,-1,-1,-1],"loss_changes":[1.24281645E1,0E0,6.0985613E0,0E0,7.498106E0,6.839123E0,2.7977262E0,0E0,0E0,0E0,0E0],"parents":[2147483647,0,0,2,2,4,4,5,5,6,6],"right_children":[2,-1,4,-1,6,8,10,-1,-1,-1,-1],"split_conditions":[1.2712452E0,-9.071792E-2,2.442238E1,9.8439485E-2,2.2581713E0,1.11395966E2,1.7080835E1,-6.26826E-2,1.5671968E-2,-4.0506423E-3,5.2623827E-2],"split_indices":[7,0,0,0,7,0,2,0,0,0,0],"split_type":[0,0,0,0,0,0,0,0,0,0,0],"sum_hessian":[1.0069187E2,1.32061825E1,8.748569E1,6.1737275E0,8.1311966E1,4.310982E1,3.8202145E1,2.2707102E1,2.040272E1,1.2795852E1,2.5406292E1],"tree_param":{"num_deleted":"0","num_feature":"8","num_nodes":"11","size_leaf_vector":"1"}},{"base_weights":[-3.6416736E-2,-8.954539E-2,9.379756E-2,1.6525666E-1,-8.6856686E-2,9.6300736E-2,9.2384316E-2,-1.3818688E-2,4.7277324E-2],"categories":[],"categories_nodes":[],"categories_segments":[],"categories_sizes":[],"default_left":[0,0,0,0,0,0,0,0,0],"id":35,"left_children":[1,-1,3,5,-1,-1,7,-1,-1],"loss_changes":[1.1144848E1,0E0,6.110794E0,4.655579E0,0E0,0E0,6.7212987E0,0E0,0E0],"parents":[2147483647,0,0,2,2,3,3,6,6],"right_children":[2,-1,4,6,-1,-1,8,-1,-1],"split_conditions":[1.2712452E0,-8.954539E-2,1.997705E2,2.442238E1,-8.6856686E-2,9.6300736E-2,1.18492744E2,-1.3818688E-2,4.7277324E-2],"split_indices":[7,0,0,0,0,0,0,0,0],"split_type":[0,0,0,0,0,0,0,0,0],"sum_hessian":[9.78822E1,1.2110594E1,8.577161E1,8.0614006E1,5.157607E0,5.7250924E0,7.488891E1,4.7022896E1,2.7866013E1],"tree_param":{"num_deleted":"0","num_feature":"8","num_nodes":"9","size_leaf_vector":"1"}},{"base_weights":[-3.4332942E-2,8.03891E-2,-9.279959E-2,-3.3029667E-1,2.5366253E-1,-7.4069023E-1,8.50802E-2,1.0395473E-1,9.473695E-2,6.2030345E-2,-9.081217E-2,-5.5348314E-2,2.4897125E-2,-1.6712775E-2,5.5712756E-2],"categories":[],"categories_nodes":[],"categories_segments":[],"categories_sizes":[],"default_left":[0,0,0,0,0,0,0,0,0,0,0,0,0,0,0],"id":36,"left_children":[1,3,-1,5,7,9,11,-1,13,-1,-1,-1,-1,-1,-1],"loss_changes":[9.976516E0,6.2402577E0,0E0,4.5131207E0,7.5714025E0,3.5790749E0,1.5894479E0,0E0,6.411289E0,0E0,0E0,0E0,0E0,0E0,0E0],"parents":[2147483647,0,0,1,1,3,3,4,4,5,5,6,6,8,8],"right_children":[2,4,-1,6,8,10,12,-1,14,-1,-1,-1,-1,-1,-1],"split_conditions":[1.997705E2,1.4825468E1,-9.279959E-2,2.0167012E0,1.8828638E3,3.865092E1,3.1842914E0,1.0395473E-1,3.8779987E1,6.2030345E-2,-9.081217E-2,-5.5348314E-2,2.4897125E-2,-1.6712775E-2,5.5712756E-2],"split_indices":[0,2,0,7,3,5,2,0,2,0,0,0,0,0,0],"split_type":[0,0,0,0,0,0,0,0,0,0,0,0,0,0,0],"sum_hessian":[9.5582535E1,8.55148E1,1.0067731E1,2.5105211E1,6.040959E1,1.2234406E1,1.2870806E1,9.229372E0,5.1180218E1,1.0439187E0,1.1190488E1,2.1431968E0,1.0727609E1,3.3082966E1,1.809725E1],"tree_param":{"num_deleted":"0","num_feature":"8","num_nodes":"15","size_leaf_vector":"1"}},{"base_weights":[-3.2282133E-2,-8.751517E-2,8.160377E-2,2.0228147E-3,8.188497E-1,1.4556028E-1,-6.630849E-1,9.1743045E-2,1.0274192E-2,-3.9242432E-4,9.517505E-2,-1.3218345E-1,-8.733271E-3],"categories":[],"categories_nodes":[],"categories_segments":[],"categories_sizes":[],"default_left":[0,0,0,0,0,0,0,0,0,0,0,0,0],"id":37,"left_children":[1,-1,3,5,7,9,11,-1,-1,-1,-1,-1,-1],"loss_changes":[9.055706E0,0E0,4.88966E0,7.3758526E0,4.7896194E-1,7.660472E0,5.0861435E0,0E0,0E0,0E0,0E0,0E0,0E0],"parents":[2147483647,0,0,2,2,3,3,4,4,5,5,6,6],"right_children":[2,-1,4,6,8,10,12,-1,-1,-1,-1,-1,-1],"split_conditions":[1.2712452E0,-8.751517E-2,7.898812E1,4.0737402E3,1.8723814E2,3.2051865E1,2.395747E0,9.1743045E-2,1.0274192E-2,-3.9242432E-4,9.517505E-2,-1.3218345E-1,-8.733271E-3],"split_indices":[7,0,2,3,5,2,7,0,0,0,0,0,0],"split_type":[0,0,0,0,0,0,0,0,0,0,0,0,0],"sum_hessian":[9.2595184E1,1.0226251E1,8.2368935E1,7.524903E1,7.119905E0,6.2534542E1,1.2714485E1,6.01125E0,1.1086551E0,5.3592506E1,8.942039E0,5.325477E0,7.389008E0],"tree_param":{"num_deleted":"0","num_feature":"8","num_nodes":"13","size_leaf_vector":"1"}},{"base_weights":[-2.9874168E-2,7.439671E-2,-9.13806E-2,-1.07996926E-1,4.4340378E-1,4.920048E-1,-3.4245646E-1,7.8204536E-1,-9.35053E-1,-3.9348066E-2,6.1568942E-2,-7.986744E-2,2.8490672E-2,9.631437E-2,2.7159521E-2,-1.0681844E-2,-1.3382114E-1],"categories":[],"categories_nodes":[],"categories_segments":[],"categories_sizes":[],"default_left":[0,0,0,0,0,0,0,0,0,0,0,0,0,0,0,0,0],"id":38,"left_children":[1,3,-1,5,7,9,11,13,15,-1,-1,-1,-1,-1,-1,-1,-1],"loss_changes":[8.506448E0,5.62199E0,0E0,8.078451E0,1.3610794E1,2.017474E0,1.1967853E1,1.836297E0,1.8260751E0,0E0,0E0,0E0,0E0,0E0,0E0,0E0,0E0],"parents":[2147483647,0,0,1,1,3,3,4,4,5,5,6,6,7,7,8,8],"right_children":[2,4,-1,6,8,10,12,14,16,-1,-1,-1,-1,-1,-1,-1,-1],"split_conditions":[1.997705E2,1.18492744E2,-9.13806E-2,4.405442E1,4.6933027E3,1.3973613E0,2.3784478E0,1.9534735E2,1.6800175E2,-3.9348066E-2,6.1568942E-2,-7.986744E-2,2.8490672E-2,9.631437E-2,2.7159521E-2,-1.0681844E-2,-1.3382114E-1],"split_indices":[0,0,0,0,3,7,7,4,1,0,0,0,0,0,0,0,0],"split_type":[0,0,0,0,0,0,0,0,0,0,0,0,0,0,0,0,0],"sum_hessian":[9.05549E1,8.1819145E1,8.735763E0,5.522817E1,2.6590973E1,1.5208885E1,4.0019283E1,2.1694109E1,4.896864E0,1.5966669E0,1.3612218E1,2.3011951E1,1.7007334E1,1.5358383E1,6.335725E0,2.0173812E0,2.8794827E0],"tree_param":{"num_deleted":"0","num_feature":"8","num_nodes":"17","size_leaf_vector":"1"}},{"base_weights":[-2.9575642E-2,6.871149E-2,-9.03848E-2,-6.4644897E-1,1.5059985E-1,-9.216549E-2,1.4941913E-1,-1.9526057E-2,4.8124626E-1,4.121853E-2,-1.8657384E-2,3.832903E-2,-3.6387157E-2,7.632893E-2,-9.315181E-2],"categories":[],"categories_nodes":[],"categories_segments":[],"categories_sizes":[],"default_left":[0,0,0,0,0,0,0,0,0,0,0,0,0,0,0],"id":39,"left_children":[1,3,-1,5,7,-1,9,11,13,-1,-1,-1,-1,-1,-1],"loss_changes":[7.652584E0,4.802093E0,0E0,1.9868791E0,4.1097555E0,0E0,3.4439445E-1,6.9487095E0,1.0593958E1,0E0,0E0,0E0,0E0,0E0,0E0],"parents":[2147483647,0,0,1,1,3,3,4,4,6,6,7,7,8,8],"right_children":[2,4,-1,6,8,-1,10,12,14,-1,-1,-1,-1,-1,-1],"split_conditions":[1.997705E2,6.3779564E0,-9.03848E-2,2.546333E3,1.18492744E2,-9.216549E-2,2.4962997E1,5.7944836E1,5.286268E3,4.121853E-2,-1.8657384E-2,3.832903E-2,-3.6387157E-2,7.632893E-2,-9.315181E-2],"split_indices":[0,2,0,3,0,0,6,0,3,0,0,0,0,0,0],"split_type":[0,0,0,0,0,0,0,0,0,0,0,0,0,0,0],"sum_hessian":[8.733357E1,7.933591E1,7.997665E0,7.442615E0,7.1893295E1,5.4128404E0,2.0297744E0,4.8090477E1,2.3802816E1,1.0117552E0,1.0180193E0,2.2111399E1,2.5979078E1,2.0224861E1,3.5779548E0],"tree_param":{"num_deleted":"0","num_feature":"8","num_nodes":"15","size_leaf_vector":"1"}},{"base_weights":[-2.9471299E-2,-2.748147E-1,3.052942E-1,6.00232E-1,-3.9731124E-1,1.4794186E-1,7.392452E-1,7.44479E-1,-7.764657E-3,-7.0228106E-1,-5.3950883E-2,3.605127E-1,-1.3154678E-1,8.168652E-1,5.087716E-3,1.1498224E-3,9.1485664E-2,-2.7984022E-3,-8.320772E-2,4.1051637E-2,-8.240133E-2,-1.01913875E-2,5.8497693E-2,9.090432E-2,1.844805E-2],"categories":[],"categories_nodes":[],"categories_segments":[],"categories_sizes":[],"default_left":[0,0,0,0,0,0,0,0,0,0,0,0,0,0,0,0,0,0,0,0,0,0,0,0,0],"id":40,"left_children":[1,3,5,7,9,11,13,15,-1,17,19,21,-1,23,-1,-1,-1,-1,-1,-1,-1,-1,-1,-1,-1],"loss_changes":[7.154848E0,5.6202497E0,2.4092128E0,6.9961786E-1,4.6369843E0,9.283724E0,4.695158E-1,6.771531E-1,0E0,2.038763E0,8.236816E0,2.7077436E0,0E0,3.2949638E-1,0E0,0E0,0E0,0E0,0E0,0E0,0E0,0E0,0E0,0E0,0E0],"parents":[2147483647,0,0,1,1,2,2,3,3,4,4,5,5,6,6,7,7,9,9,10,10,11,11,13,13],"right_children":[2,4,6,8,10,12,14,16,-1,18,20,22,-1,24,-1,-1,-1,-1,-1,-1,-1,-1,-1,-1,-1],"split_conditions":[2.2581713E0,3.3883236E1,5.6520214E1,2.1076074E3,1.11395966E2,7.0305044E3,5.124705E1,1.3275597E1,-7.764657E-3,5.826471E1,1.9232242E2,9.329007E1,-1.3154678E-1,3.5021324E0,5.087716E-3,1.1498224E-3,9.1485664E-2,-2.7984022E-3,-8.320772E-2,4.1051637E-2,-8.240133E-2,-1.01913875E-2,5.8497693E-2,9.090432E-2,1.844805E-2],"split_indices":[7,0,2,3,0,3,6,2,0,4,0,0,0,7,0,0,0,0,0,0,0,0,0,0,0],"split_type":[0,0,0,0,0,0,0,0,0,0,0,0,0,0,0,0,0,0,0,0,0,0,0,0,0],"sum_hessian":[8.509198E1,4.9207676E1,3.5884308E1,5.563704E0,4.364397E1,2.7319183E1,8.565124E0,4.506508E0,1.057196E0,2.2560556E1,2.1083414E1,2.4512249E1,2.8069334E0,7.5294385E0,1.0356851E0,1.0512815E0,3.4552264E0,3.8379314E0,1.8722626E1,1.3442439E1,7.640975E0,8.188599E0,1.632365E1,6.189725E0,1.3397138E0],"tree_param":{"num_deleted":"0","num_feature":"8","num_nodes":"25","size_leaf_vector":"1"}},{"base_weights":[-2.7512232E-2,6.045895E-2,-8.854372E-2,-1.5133079E-2,7.8554356E-1,-2.1924636E-1,3.679853E-1,8.9228705E-2,6.7072026E-3,1.3209454E-2,-7.632371E-2,6.858315E-2,-8.32008E-2],"categories":[],"categories_nodes":[],"categories_segments":[],"categories_sizes":[],"default_left":[0,0,0,0,0,0,0,0,0,0,0,0,0],"id":41,"left_children":[1,3,-1,5,7,9,11,-1,-1,-1,-1,-1,-1],"loss_changes":[6.3552666E0,4.214082E0,0E0,5.5867434E0,4.9671412E-1,9.000309E0,1.0047597E1,0E0,0E0,0E0,0E0,0E0,0E0],"parents":[2147483647,0,0,1,1,3,3,4,4,5,5,6,6],"right_children":[2,4,-1,6,8,10,12,-1,-1,-1,-1,-1,-1],"split_conditions":[1.997705E2,7.898812E1,-8.854372E-2,1.18492744E2,1.8825296E2,8.421809E1,4.6933027E3,8.9228705E-2,6.7072026E-3,1.3209454E-2,-7.632371E-2,6.858315E-2,-8.32008E-2],"split_indices":[0,2,0,0,5,4,3,0,0,0,0,0,0],"split_type":[0,0,0,0,0,0,0,0,0,0,0,0,0],"sum_hessian":[8.2496895E1,7.566752E1,6.829379E0,6.941042E1,6.2570944E0,4.5563416E1,2.3847006E1,5.237095E0,1.0199996E0,2.8143732E1,1.7419683E1,1.919202E1,4.6549845E0],"tree_param":{"num_deleted":"0","num_feature":"8","num_nodes":"13","size_leaf_vector":"1"}},{"base_weights":[-2.602708E-2,-2.5905108E-1,2.8725374E-1,5.6758004E-1,-3.76592E-1,7.0772916E-1,1.3980155E-1,7.135007E-1,-8.053209E-3,-6.4499396E-1,-5.8948953E-2,1.9183397E-1,9.9964514E-2,2.876425E-1,-8.7113667E-1,4.1564676E-4,8.899938E-2,-3.612496E-3,-7.67755E-2,3.5174396E-2,-7.955823E-2,5.9910297E-2,-6.0279768E-2,-7.090239E-2,4.820838E-2,-2.0396397E-2,-1.19085625E-1],"categories":[],"categories_nodes":[],"categories_segments":[],"categories_sizes":[],"default_left":[0,0,0,0,0,0,0,0,0,0,0,0,0,0,0,0,0,0,0,0,0,0,0,0,0,0,0],"id":42,"left_children":[1,3,5,7,9,11,13,15,-1,17,19,21,-1,23,25,-1,-1,-1,-1,-1,-1,-1,-1,-1,-1,-1,-1],"loss_changes":[6.0337768E0,4.813302E0,2.08931E0,6.5252066E-1,3.5466933E0,1.151175E0,4.342287E0,6.519687E-1,0E0,1.668169E0,6.4385657E0,1.8044962E0,0E0,5.116076E0,5.551102E-1,0E0,0E0,0E0,0E0,0E0,0E0,0E0,0E0,0E0,0E0,0E0,0E0],"parents":[2147483647,0,0,1,1,2,2,3,3,4,4,5,5,6,6,7,7,9,9,10,10,11,11,13,13,14,14],"right_children":[2,4,6,8,10,12,14,16,-1,18,20,22,-1,24,26,-1,-1,-1,-1,-1,-1,-1,-1,-1,-1,-1,-1],"split_conditions":[2.2581713E0,3.3883236E1,5.8584316E1,2.1076074E3,1.11395966E2,6.528906E1,8.261644E3,1.3275597E1,-8.053209E-3,5.826471E1,1.9232242E2,6.239532E1,9.9964514E-2,2.2601812E3,1.4814291E2,4.1564676E-4,8.899938E-2,-3.612496E-3,-7.67755E-2,3.5174396E-2,-7.955823E-2,5.9910297E-2,-6.0279768E-2,-7.090239E-2,4.820838E-2,-2.0396397E-2,-1.19085625E-1],"split_indices":[7,0,0,3,0,5,3,2,0,4,0,1,0,3,5,0,0,0,0,0,0,0,0,0,0,0,0],"split_type":[0,0,0,0,0,0,0,0,0,0,0,0,0,0,0,0,0,0,0,0,0,0,0,0,0,0,0],"sum_hessian":[8.063293E1,4.633856E1,3.4294365E1,5.2920847E0,4.1046474E1,7.917387E0,2.6376978E1,4.2372E0,1.0548847E0,2.1689081E1,1.9357395E1,3.4599195E0,4.4574676E0,2.3635902E1,2.7410767E0,1.0481455E0,3.1890543E0,3.856402E0,1.7832678E1,1.2763756E1,6.593639E0,2.4501944E0,1.009725E0,3.4264002E0,2.0209501E1,1.4186547E0,1.322422E0],"tree_param":{"num_deleted":"0","num_feature":"8","num_nodes":"27","size_leaf_vector":"1"}},{"base_weights":[-2.5382385E-2,-8.228352E-2,6.1952207E-2,8.828242E-2,-5.409075E-4,-1.20512016E-1,4.5718223E-1,-4.7011552E-3,-1.1963701E-1,8.252374E-2,7.50564E-3],"categories":[],"categories_nodes":[],"categories_segments":[],"categories_sizes":[],"default_left":[0,0,0,0,0,0,0,0,0,0,0],"id":43,"left_children":[1,-1,3,-1,5,7,9,-1,-1,-1,-1],"loss_changes":[5.5788426E0,0E0,3.7179632E0,0E0,3.8078868E0,4.2881207E0,1.9634559E0,0E0,0E0,0E0,0E0],"parents":[2147483647,0,0,2,2,4,4,5,5,6,6],"right_children":[2,-1,4,-1,6,8,10,-1,-1,-1,-1],"split_conditions":[1.2712452E0,-8.228352E-2,2.442238E1,8.828242E-2,4.0347942E1,6.775892E3,1.5155463E2,-4.7011552E-3,-1.1963701E-1,8.252374E-2,7.50564E-3],"split_indices":[7,0,0,0,2,3,4,0,0,0,0],"split_type":[0,0,0,0,0,0,0,0,0,0,0],"sum_hessian":[7.83718E1,6.9045615E0,7.146724E1,4.1272626E0,6.733998E1,5.393905E1,1.340093E1,5.1466644E1,2.4724011E0,6.2354693E0,7.165461E0],"tree_param":{"num_deleted":"0","num_feature":"8","num_nodes":"11","size_leaf_vector":"1"}},{"base_weights":[-2.3559239E-2,5.276892E-2,-8.594974E-2,-1.4761465E-2,7.460652E-1,-1.980173E-1,3.352404E-1,8.626804E-2,1.0087603E-2,1.298517E-2,-7.0009895E-2,6.653958E-2,-6.639185E-2],"categories":[],"categories_nodes":[],"categories_segments":[],"categories_sizes":[],"default_left":[0,0,0,0,0,0,0,0,0,0,0,0,0],"id":44,"left_children":[1,3,-1,5,7,9,11,-1,-1,-1,-1,-1,-1],"loss_changes":[5.0242195E0,3.4027889E0,0E0,4.3634696E0,3.9823484E-1,7.4329844E0,8.159117E0,0E0,0E0,0E0,0E0,0E0,0E0],"parents":[2147483647,0,0,1,1,3,3,4,4,5,5,6,6],"right_children":[2,4,-1,6,8,10,12,-1,-1,-1,-1,-1,-1],"split_conditions":[1.997705E2,7.898812E1,-8.594974E-2,1.18492744E2,4.4269478E1,8.421809E1,4.0737402E3,8.626804E-2,1.0087603E-2,1.298517E-2,-7.0009895E-2,6.653958E-2,-6.639185E-2],"split_indices":[0,2,0,0,6,4,3,0,0,0,0,0,0],"split_type":[0,0,0,0,0,0,0,0,0,0,0,0,0],"sum_hessian":[7.703177E1,7.144511E1,5.586663E0,6.599553E1,5.449573E0,4.3600952E1,2.2394579E1,4.3298707E0,1.1197022E0,2.682505E1,1.6775904E1,1.7083624E1,5.3109546E0],"tree_param":{"num_deleted":"0","num_feature":"8","num_nodes":"13","size_leaf_vector":"1"}},{"base_weights":[-2.2057984E-2,-2.4217036E-1,2.6865405E-1,-6.9442296E-1,-3.5905514E-2,7.275194E-1,1.4580141E-1,3.6640156E-2,-8.576293E-1,3.656793E-1,-7.758238E-1,-8.281565E-3,8.824804E-1,-8.117708E-1,3.1423488E-1,-9.642669E-2,1.5194381E-2,7.991267E-2,1.4206432E-2,-1.1700981E-1,-1.2092864E-2,2.37365E-2,9.82041E-2,8.560424E-3,-1.2355645E-1,4.7272347E-2,-4.4622507E-2],"categories":[],"categories_nodes":[],"categories_segments":[],"categories_sizes":[],"default_left":[0,0,0,0,0,0,0,0,0,0,0,0,0,0,0,0,0,0,0,0,0,0,0,0,0,0,0],"id":45,"left_children":[1,3,5,7,9,11,13,-1,15,17,19,-1,21,23,25,-1,-1,-1,-1,-1,-1,-1,-1,-1,-1,-1,-1],"loss_changes":[4.960362E0,4.0854692E0,1.7789464E0,2.6943488E0,9.588975E0,9.2836833E-1,4.7110076E0,0E0,1.4614134E0,1.9198356E0,2.7859316E0,0E0,1.3965082E-1,1.7835431E0,3.1295023E0,0E0,0E0,0E0,0E0,0E0,0E0,0E0,0E0,0E0,0E0,0E0,0E0],"parents":[2147483647,0,0,1,1,2,2,3,3,4,4,5,5,6,6,8,8,9,9,10,10,12,12,13,13,14,14],"right_children":[2,4,6,8,10,12,14,-1,16,18,20,-1,22,24,26,-1,-1,-1,-1,-1,-1,-1,-1,-1,-1,-1,-1],"split_conditions":[2.2581713E0,1.3197346E1,7.146063E1,4.2596275E1,2.8587856E3,1.3197346E1,2.2601812E3,3.6640156E-2,3.1236099E3,1.8828638E3,3.27104E1,-8.281565E-3,2.5395143E0,2.395747E0,3.4333944E0,-9.642669E-2,1.5194381E-2,7.991267E-2,1.4206432E-2,-1.1700981E-1,-1.2092864E-2,2.37365E-2,9.82041E-2,8.560424E-3,-1.2355645E-1,4.7272347E-2,-4.4622507E-2],"split_indices":[7,2,4,4,3,2,3,0,3,3,2,0,6,7,7,0,0,0,0,0,0,0,0,0,0,0,0],"split_type":[0,0,0,0,0,0,0,0,0,0,0,0,0,0,0,0,0,0,0,0,0,0,0,0,0,0,0],"sum_hessian":[7.550186E1,4.306341E1,3.243845E1,1.2747285E1,3.0316126E1,5.8112054E0,2.6627245E1,1.533656E0,1.1213629E1,1.9978653E1,1.0337473E1,1.0076243E0,4.8035808E0,3.4116895E0,2.3215555E1,1.018292E1,1.0307089E0,5.923356E0,1.4055298E1,5.961628E0,4.375845E0,1.0946674E0,3.7089136E0,1.3503512E0,2.0613382E0,1.9524746E1,3.6908097E0],"tree_param":{"num_deleted":"0","num_feature":"8","num_nodes":"27","size_leaf_vector":"1"}},{"base_weights":[-2.1641975E-2,-7.92921E-2,5.40981E-2,8.498645E-2,-2.90997E-3,-1.19316384E-1,4.24622E-1,1.0030832E-3,-4.9489085E-2,6.7259245E-2,-2.47869E-2],"categories":[],"categories_nodes":[],"categories_segments":[],"categories_sizes":[],"default_left":[0,0,0,0,0,0,0,0,0,0,0],"id":46,"left_children":[1,-1,3,-1,5,7,9,-1,-1,-1,-1],"loss_changes":[4.4023457E0,0E0,3.127665E0,0E0,3.299538E0,2.535526E0,2.5329993E0,0E0,0E0,0E0,0E0],"parents":[2147483647,0,0,2,2,4,4,5,5,6,6],"right_children":[2,-1,4,-1,6,8,10,-1,-1,-1,-1],"split_conditions":[1.2712452E0,-7.92921E-2,2.442238E1,8.498645E-2,2.795998E0,3.318245E3,3.5021324E0,1.0030832E-3,-4.9489085E-2,6.7259245E-2,-2.47869E-2],"split_indices":[7,0,0,0,7,3,7,0,0,0,0],"split_type":[0,0,0,0,0,0,0,0,0,0,0],"sum_hessian":[7.362674E1,5.7369585E0,6.788978E1,3.6087017E0,6.4281075E1,5.1091137E1,1.3189939E1,3.8726936E1,1.2364201E1,9.636486E0,3.553453E0],"tree_param":{"num_deleted":"0","num_feature":"8","num_nodes":"11","size_leaf_vector":"1"}},{"base_weights":[-1.9597637E-2,-3.491691E-1,1.4667599E-1,3.8024282E-1,-5.3592086E-1,4.7678766E-1,-9.075833E-3,8.363124E-2,-5.8564287E-2,-7.0879817E-1,5.0420403E-1,1.9557773E-1,9.38387E-1,-1.4621724E-1,7.044974E-1,-5.9586555E-2,5.1435262E-2,-9.6024394E-2,-2.933381E-2,6.378264E-2,9.287438E-3,5.0644655E-2,-5.8377188E-2,1.2876998E-1,-2.8322006E-2,-6.116686E-2,2.3787964E-2,8.302829E-2,7.1585174E-3],"categories":[],"categories_nodes":[],"categories_segments":[],"categories_sizes":[],"default_left":[0,0,0,0,0,0,0,0,0,0,0,0,0,0,0,0,0,0,0,0,0,0,0,0,0,0,0,0,0],"id":47,"left_children":[1,3,5,7,9,11,13,-1,15,17,19,21,23,25,27,-1,-1,-1,-1,-1,-1,-1,-1,-1,-1,-1,-1,-1,-1],"loss_changes":[4.0954432E0,3.6152208E0,2.5626223E0,1.1876819E0,4.017293E0,1.8893781E0,3.5073833E0,0E0,1.486823E0,1.5849924E0,1.3231719E-1,3.0059729E0,2.8321314E0,5.5103016E0,4.0071344E-1,0E0,0E0,0E0,0E0,0E0,0E0,0E0,0E0,0E0,0E0,0E0,0E0,0E0,0E0],"parents":[2147483647,0,0,1,1,2,2,3,3,4,4,5,5,6,6,8,8,9,9,10,10,11,11,12,12,13,13,14,14],"right_children":[2,4,6,8,10,12,14,-1,16,18,20,22,24,26,28,-1,-1,-1,-1,-1,-1,-1,-1,-1,-1,-1,-1,-1,-1],"split_conditions":[1.9175502E0,4.006088E1,8.421809E1,1.2229467E3,3.2051865E1,8.553005E1,7.898812E1,8.363124E-2,2.1662155E1,1.3482079E2,1.9474445E2,6.720816E1,3.318245E3,1.18492744E2,4.4269478E1,-5.9586555E-2,5.1435262E-2,-9.6024394E-2,-2.933381E-2,6.378264E-2,9.287438E-3,5.0644655E-2,-5.8377188E-2,1.2876998E-1,-2.8322006E-2,-6.116686E-2,2.3787964E-2,8.302829E-2,7.1585174E-3],"split_indices":[7,0,4,3,2,0,2,0,2,0,1,4,3,0,6,0,0,0,0,0,0,0,0,0,0,0,0,0,0],"split_type":[0,0,0,0,0,0,0,0,0,0,0,0,0,0,0,0,0,0,0,0,0,0,0,0,0,0,0,0,0],"sum_hessian":[7.280108E1,2.4043808E1,4.8757275E1,4.689918E0,1.9353891E1,1.4969222E1,3.378805E1,1.8555226E0,2.8343954E0,1.6868717E1,2.485174E0,1.0186949E1,4.7822733E0,2.9008087E1,4.7799635E0,1.4419909E0,1.3924046E0,9.691764E0,7.176953E0,1.4601818E0,1.024992E0,7.5325255E0,2.6544235E0,3.6768048E0,1.1054685E0,1.2847233E1,1.6160854E1,3.727343E0,1.0526204E0],"tree_param":{"num_deleted":"0","num_feature":"8","num_nodes":"29","size_leaf_vector":"1"}},{"base_weights":[-1.5641335E-2,5.1369876E-2,-8.302089E-2,-5.0386306E-2,4.588038E-1,-2.9679856E-1,2.371542E-1,8.195076E-1,6.811905E-2,1.465189E-3,-1.15619265E-1,3.9133724E-2,-1.0415272E-1,9.368105E-2,6.0863285E-3,-4.0565833E-2,7.564563E-2],"categories":[],"categories_nodes":[],"categories_segments":[],"categories_sizes":[],"default_left":[0,0,0,0,0,0,0,0,0,0,0,0,0,0,0,0,0],"id":48,"left_children":[1,3,-1,5,7,9,11,13,15,-1,-1,-1,-1,-1,-1,-1,-1],"loss_changes":[3.992798E0,2.8343508E0,0E0,3.9785314E0,1.8676968E0,8.08618E0,5.5356026E0,5.6649494E-1,2.7994332E0,0E0,0E0,0E0,0E0,0E0,0E0,0E0,0E0],"parents":[2147483647,0,0,1,1,3,3,4,4,5,5,6,6,7,7,8,8],"right_children":[2,4,-1,6,8,10,12,14,16,-1,-1,-1,-1,-1,-1,-1,-1],"split_conditions":[1.997705E2,4.0347942E1,-8.302089E-2,9.9376724E1,1.5155463E2,8.484922E1,6.775892E3,1.7982588E2,7.898812E1,1.465189E-3,-1.15619265E-1,3.9133724E-2,-1.0415272E-1,9.368105E-2,6.0863285E-3,-4.0565833E-2,7.564563E-2],"split_indices":[0,2,0,0,4,1,3,5,2,0,0,0,0,0,0,0,0],"split_type":[0,0,0,0,0,0,0,0,0,0,0,0,0,0,0,0,0],"sum_hessian":[7.136675E1,6.6807686E1,4.5590653E0,5.4158096E1,1.2649593E1,2.9147501E1,2.5010595E1,6.0064535E0,6.64314E0,2.2115602E1,7.031898E0,2.2938616E1,2.0719795E0,4.9986978E0,1.0077554E0,4.178073E0,2.465067E0],"tree_param":{"num_deleted":"0","num_feature":"8","num_nodes":"17","size_leaf_vector":"1"}},{"base_weights":[-1.6313355E-2,4.6540514E-2,-8.170125E-2,-5.5595154E-1,1.1031167E-1,-8.7165E-2,1.969308E-2,-1.406223E-2,4.5066333E-1,1.9615345E-2,-3.7242226E-2,6.5054454E-2,-2.1485642E-2],"categories":[],"categories_nodes":[],"categories_segments":[],"categories_sizes":[],"default_left":[0,0,0,0,0,0,0,0,0,0,0,0,0],"id":49,"left_children":[1,3,-1,5,7,-1,-1,9,11,-1,-1,-1,-1],"loss_changes":[3.5989554E0,2.6183617E0,0E0,1.7250531E0,2.5892138E0,0E0,0E0,3.51248E0,2.3160608E0,0E0,0E0,0E0,0E0],"parents":[2147483647,0,0,1,1,3,3,4,4,7,7,8,8],"right_children":[2,4,-1,6,8,-1,-1,10,12,-1,-1,-1,-1],"split_conditions":[1.997705E2,6.3779564E0,-8.170125E-2,2.546333E3,2.6521444E0,-8.7165E-2,1.969308E-2,2.8587856E3,3.5021324E0,1.9615345E-2,-3.7242226E-2,6.5054454E-2,-2.1485642E-2],"split_indices":[0,2,0,3,7,0,0,3,7,0,0,0,0],"split_type":[0,0,0,0,0,0,0,0,0,0,0,0,0],"sum_hessian":[6.975583E1,6.5551956E1,4.203871E0,5.5355663E0,6.001639E1,3.789009E0,1.746557E0,4.465639E1,1.5359998E1,2.843117E1,1.6225224E1,1.1829611E1,3.5303864E0],"tree_param":{"num_deleted":"0","num_feature":"8","num_nodes":"13","size_leaf_vector":"1"}},{"base_weights":[-1.6746158E-2,-1.4547722E-1,3.428898E-1,-4.5509106E-1,5.2539777E-2,8.812637E-2,4.606357E-2,3.0329582E-1,-6.6709375E-1,3.5967174E-1,-1.6318241E-1,-7.1342397E-1,4.7852784E-1,7.949376E-2,-1.9373355E-2,-9.281103E-2,-2.3881232E-2,5.3429604E-2,-6.7456834E-2,-7.070636E-2,2.3797147E-2,-1.18976785E-2,-1.2152835E-1,6.169619E-2,-3.0237107E-2],"categories":[],"categories_nodes":[],"categories_segments":[],"categories_sizes":[],"default_left":[0,0,0,0,0,0,0,0,0,0,0,0,0,0,0,0,0,0,0,0,0,0,0,0,0],"id":50,"left_children":[1,3,5,7,9,-1,11,13,15,17,19,21,23,-1,-1,-1,-1,-1,-1,-1,-1,-1,-1,-1,-1],"loss_changes":[3.2820783E0,3.21899E0,2.9478707E0,3.4874444E0,2.2240546E0,0E0,4.6473308E0,1.4127907E0,1.5983872E0,2.8520765E0,4.50696E0,1.3941827E0,1.1542733E0,0E0,0E0,0E0,0E0,0E0,0E0,0E0,0E0,0E0,0E0,0E0,0E0],"parents":[2147483647,0,0,1,1,2,2,3,3,4,4,6,6,7,7,8,8,9,9,10,10,11,11,12,12],"right_children":[2,4,6,8,10,-1,12,14,16,18,20,22,24,-1,-1,-1,-1,-1,-1,-1,-1,-1,-1,-1,-1],"split_conditions":[3.2051865E1,1.9175502E0,4.0737402E3,4.006088E1,8.421809E1,8.812637E-2,5.6520214E1,1.2229467E3,1.3482079E2,3.2719531E3,1.18492744E2,1.6178767E2,1.0417557E2,7.949376E-2,-1.9373355E-2,-9.281103E-2,-2.3881232E-2,5.3429604E-2,-6.7456834E-2,-7.070636E-2,2.3797147E-2,-1.18976785E-2,-1.2152835E-1,6.169619E-2,-3.0237107E-2],"split_indices":[2,7,3,0,4,0,2,3,0,3,0,5,0,0,0,0,0,0,0,0,0,0,0,0,0],"split_type":[0,0,0,0,0,0,0,0,0,0,0,0,0,0,0,0,0,0,0,0,0,0,0,0,0],"sum_hessian":[6.881541E1,5.1114532E1,1.7700872E1,1.9432373E1,3.1682158E1,5.5910497E0,1.2109822E1,4.1513453E0,1.5281029E1,1.2796292E1,1.8885866E1,4.1579747E0,7.951847E0,1.7856616E0,2.3656833E0,8.769432E0,6.5115967E0,1.1361393E1,1.4348998E0,7.693078E0,1.1192787E1,2.4697063E0,1.6882687E0,6.9327717E0,1.0190752E0],"tree_param":{"num_deleted":"0","num_feature":"8","num_nodes":"25","size_leaf_vector":"1"}},{"base_weights":[-1.7274812E-2,4.1572567E-2,-8.005711E-2,7.6067515E-2,-7.444346E-3,-2.1237884E-1,2.0376807E-1,-3.9631363E-2,5.2420408E-2,3.986628E-2,-5.572453E-2],"categories":[],"categories_nodes":[],"categories_segments":[],"categories_sizes":[],"default_left":[0,0,0,0,0,0,0,0,0,0,0],"id":51,"left_children":[1,3,-1,-1,5,7,9,-1,-1,-1,-1],"loss_changes":[3.1736917E0,2.2727942E0,0E0,0E0,2.6925135E0,4.4827566E0,4.7682548E0,0E0,0E0,0E0,0E0],"parents":[2147483647,0,0,1,1,4,4,5,5,6,6],"right_children":[2,4,-1,-1,6,8,10,-1,-1,-1,-1],"split_conditions":[1.997705E2,2.442238E1,-8.005711E-2,7.6067515E-2,9.57998E1,5.6520214E1,5.286268E3,-3.9631363E-2,5.2420408E-2,3.986628E-2,-5.572453E-2],"split_indices":[0,0,0,0,0,2,3,0,0,0,0],"split_type":[0,0,0,0,0,0,0,0,0,0,0],"sum_hessian":[6.712919E1,6.3319088E1,3.810102E0,3.1141613E0,6.0204926E1,3.055378E1,2.9651146E1,2.4818277E1,5.735504E0,2.3984804E1,5.6663413E0],"tree_param":{"num_deleted":"0","num_feature":"8","num_nodes":"11","size_leaf_vector":"1"}},{"base_weights":[-1.5882885E-2,3.9494887E-2,-7.865927E-2,-5.191051E-1,9.655249E-2,-8.486997E-2,1.9484077E-2,5.021338E-1,3.4628692E-4,-2.2396673E-2,9.0247415E-2,-1.4298603E-2,3.7808727E-2],"categories":[],"categories_nodes":[],"categories_segments":[],"categories_sizes":[],"default_left":[0,0,0,0,0,0,0,0,0,0,0,0,0],"id":52,"left_children":[1,3,-1,5,7,-1,-1,9,11,-1,-1,-1,-1],"loss_changes":[2.8800595E0,2.065395E0,0E0,1.5811859E0,2.2712533E0,0E0,0E0,3.4462702E0,2.6557407E0,0E0,0E0,0E0,0E0],"parents":[2147483647,0,0,1,1,3,3,4,4,7,7,8,8],"right_children":[2,4,-1,6,8,-1,-1,10,12,-1,-1,-1,-1],"split_conditions":[1.997705E2,6.3779564E0,-7.865927E-2,2.546333E3,1.7785759E3,-8.486997E-2,1.9484077E-2,1.3197346E1,3.7851376E1,-2.2396673E-2,9.0247415E-2,-1.4298603E-2,3.7808727E-2],"split_indices":[0,2,0,3,3,0,0,2,2,0,0,0,0],"split_type":[0,0,0,0,0,0,0,0,0,0,0,0,0],"sum_hessian":[6.5752106E1,6.2229492E1,3.522617E0,5.0167794E0,5.721271E1,3.303135E0,1.7136443E0,1.0160257E1,4.7052452E1,3.767561E0,6.3926964E0,3.4560196E1,1.2492259E1],"tree_param":{"num_deleted":"0","num_feature":"8","num_nodes":"13","size_leaf_vector":"1"}},{"base_weights":[-1.5308973E-2,-7.708382E-2,3.7272338E-2,7.292693E-2,-7.742327E-3,-1.0171469E-1,3.5280386E-1,2.0885915E-3,-4.5410447E-2,5.975258E-2,-2.5008533E-2],"categories":[],"categories_nodes":[],"categories_segments":[],"categories_sizes":[],"default_left":[0,0,0,0,0,0,0,0,0,0,0],"id":53,"left_children":[1,-1,3,-1,5,7,9,-1,-1,-1,-1],"loss_changes":[2.63476E0,0E0,1.945808E0,0E0,2.050804E0,2.0811014E0,1.9965247E0,0E0,0E0,0E0,0E0],"parents":[2147483647,0,0,2,2,4,4,5,5,6,6],"right_children":[2,-1,4,-1,6,8,10,-1,-1,-1,-1],"split_conditions":[1.1885563E0,-7.708382E-2,2.442238E1,7.292693E-2,2.795998E0,3.318245E3,3.5021324E0,2.0885915E-3,-4.5410447E-2,5.975258E-2,-2.5008533E-2],"split_indices":[7,0,0,0,7,3,7,0,0,0,0],"split_type":[0,0,0,0,0,0,0,0,0,0,0],"sum_hessian":[6.459891E1,3.3144457E0,6.1284466E1,2.8146706E0,5.8469795E1,4.6950542E1,1.1519251E1,3.5529972E1,1.142057E1,8.199746E0,3.3195052E0],"tree_param":{"num_deleted":"0","num_feature":"8","num_nodes":"11","size_leaf_vector":"1"}},{"base_weights":[-1.4004132E-2,3.6739126E-2,-7.664926E-2,-6.8316616E-2,3.192014E-1,-3.0683538E-1,1.5343739E-1,8.623663E-2,3.000357E-2,1.00586135E-2,-1.050417E-1,1.23081766E-1,5.7070144E-4,-6.2830605E-2,4.2981014E-2],"categories":[],"categories_nodes":[],"categories_segments":[],"categories_sizes":[],"default_left":[0,0,0,0,0,0,0,0,0,0,0,0,0,0,0],"id":54,"left_children":[1,3,-1,5,7,9,11,-1,13,-1,-1,-1,-1,-1,-1],"loss_changes":[2.512653E0,1.8589581E0,0E0,2.47751E0,2.638267E0,6.9134874E0,3.8890433E0,0E0,3.4556637E0,0E0,0E0,0E0,0E0,0E0,0E0],"parents":[2147483647,0,0,1,1,3,3,4,4,5,5,6,6,8,8],"right_children":[2,4,-1,6,8,10,12,-1,14,-1,-1,-1,-1,-1,-1],"split_conditions":[1.997705E2,3.2051865E1,-7.664926E-2,8.699729E1,4.0737402E3,5.536219E1,8.190016E1,8.623663E-2,5.6520214E1,1.00586135E-2,-1.050417E-1,1.23081766E-1,5.7070144E-4,-6.2830605E-2,4.2981014E-2],"split_indices":[0,2,0,0,3,0,5,0,2,0,0,0,0,0,0],"split_type":[0,0,0,0,0,0,0,0,0,0,0,0,0,0,0],"sum_hessian":[6.406681E1,6.0910553E1,3.1562617E0,4.495037E1,1.5960181E1,2.147171E1,2.347866E1,4.856634E0,1.1103547E1,1.442999E1,7.0417204E0,1.9471092E0,2.1531551E1,3.9794984E0,7.1240487E0],"tree_param":{"num_deleted":"0","num_feature":"8","num_nodes":"15","size_leaf_vector":"1"}},{"base_weights":[-1.2796839E-2,3.5149645E-2,-7.518355E-2,7.022113E-2,-6.8066167E-3,-1.4697777E-1,2.619951E-1,-4.1009177E-2,1.8867135E-2,5.0527286E-2,-6.705113E-2],"categories":[],"categories_nodes":[],"categories_segments":[],"categories_sizes":[],"default_left":[0,0,0,0,0,0,0,0,0,0,0],"id":55,"left_children":[1,3,-1,-1,5,7,9,-1,-1,-1,-1],"loss_changes":[2.2846298E0,1.7064697E0,0E0,0E0,2.2311707E0,3.5118594E0,4.945121E0,0E0,0E0,0E0,0E0],"parents":[2147483647,0,0,1,1,4,4,5,5,6,6],"right_children":[2,4,-1,-1,6,8,10,-1,-1,-1,-1],"split_conditions":[1.997705E2,2.442238E1,-7.518355E-2,7.022113E-2,1.18492744E2,2.0444223E1,5.286268E3,-4.1009177E-2,1.8867135E-2,5.0527286E-2,-6.705113E-2],"split_indices":[0,0,0,0,0,6,3,0,0,0,0],"split_type":[0,0,0,0,0,0,0,0,0,0,0],"sum_hessian":[6.2729294E1,5.9801968E1,2.9273233E0,2.607567E0,5.71944E1,3.78895E1,1.9304901E1,2.111542E1,1.677408E1,1.5673946E1,3.630956E0],"tree_param":{"num_deleted":"0","num_feature":"8","num_nodes":"11","size_leaf_vector":"1"}},{"base_weights":[-1.2288361E-2,-5.598925E-1,4.974022E-2,-8.561512E-2,1.559791E-2,-6.06986E-2,3.727385E-1,1.463918E-1,-3.3531314E-1,5.9787E-1,-1.6485322E-1,-3.8348023E-2,3.478818E-2,-4.780725E-2,6.943869E-2,7.438743E-2,-1.5284794E-2,6.0042884E-2,-6.0719427E-2],"categories":[],"categories_nodes":[],"categories_segments":[],"categories_sizes":[],"default_left":[0,0,0,0,0,0,0,0,0,0,0,0,0,0,0,0,0,0,0],"id":56,"left_children":[1,3,5,-1,-1,7,9,11,13,15,17,-1,-1,-1,-1,-1,-1,-1,-1],"loss_changes":[2.1611354E0,1.5060992E0,2.0677707E0,0E0,0E0,2.5277338E0,1.8835285E0,2.8604841E0,3.1310298E0,1.2767723E0,2.1035602E0,0E0,0E0,0E0,0E0,0E0,0E0,0E0,0E0],"parents":[2147483647,0,0,1,1,2,2,5,5,6,6,7,7,8,8,9,9,10,10],"right_children":[2,4,6,-1,-1,8,10,12,14,16,18,-1,-1,-1,-1,-1,-1,-1,-1],"split_conditions":[6.3779564E0,2.6995212E3,2.6521444E0,-8.561512E-2,1.559791E-2,2.6485881E3,7.4056406E3,1.3588867E1,7.6417274E1,3.5021324E0,6.543314E1,-3.8348023E-2,3.478818E-2,-4.780725E-2,6.943869E-2,7.438743E-2,-1.5284794E-2,6.0042884E-2,-6.0719427E-2],"split_indices":[2,3,7,0,0,3,3,2,2,7,0,0,0,0,0,0,0,0,0],"split_type":[0,0,0,0,0,0,0,0,0,0,0,0,0,0,0,0,0,0,0],"sum_hessian":[6.1804478E1,5.471787E0,5.633269E1,3.7315524E0,1.7402345E0,4.2584408E1,1.3748283E1,2.4543076E1,1.8041332E1,9.611199E0,4.137084E0,6.512772E0,1.8030304E1,1.6315096E1,1.7262363E0,8.053936E0,1.5572635E0,1.3844669E0,2.7526171E0],"tree_param":{"num_deleted":"0","num_feature":"8","num_nodes":"19","size_leaf_vector":"1"}},{"base_weights":[-1.0952208E-2,6.6134095E-2,-4.4414344E-1,-9.993699E-3,8.49382E-2,-1.0572271E0,-7.0984475E-2,-4.7393778E-1,9.498241E-2,-2.4599796E-2,-1.2846519E-1,4.2424953E-1,-6.428302E-2,-6.489786E-2,3.9555915E-2,4.0609088E-2,-5.536896E-3,-1.2976303E-2,6.351542E-2],"categories":[],"categories_nodes":[],"categories_segments":[],"categories_sizes":[],"default_left":[0,0,0,0,0,0,0,0,0,0,0,0,0,0,0,0,0,0,0],"id":57,"left_children":[1,3,5,7,-1,9,11,13,15,-1,-1,17,-1,-1,-1,-1,-1,-1,-1],"loss_changes":[2.0961115E0,3.1932716E0,2.093615E0,2.4640326E0,0E0,3.3241272E-1,2.2450976E0,1.676975E0,1.956046E0,0E0,0E0,5.889109E-1,0E0,0E0,0E0,0E0,0E0,0E0,0E0],"parents":[2147483647,0,0,1,1,2,2,3,3,5,5,6,6,7,7,8,8,11,11],"right_children":[2,4,6,8,-1,10,12,14,16,-1,-1,18,-1,-1,-1,-1,-1,-1,-1],"split_conditions":[1.9534735E2,1.8409045E2,2.0367268E2,1.7861129E0,8.49382E-2,2.1985424E1,2.1290689E2,2.850556E1,5.7944836E1,-2.4599796E-2,-1.2846519E-1,2.0515463E2,-6.428302E-2,-6.489786E-2,3.9555915E-2,4.0609088E-2,-5.536896E-3,-1.2976303E-2,6.351542E-2],"split_indices":[4,4,4,7,0,2,4,2,0,0,0,4,0,0,0,0,0,0,0],"split_type":[0,0,0,0,0,0,0,0,0,0,0,0,0,0,0,0,0,0,0],"sum_hessian":[6.089116E1,5.241182E1,8.4793415E0,4.8668705E1,3.7431152E0,2.5146692E0,5.964672E0,8.33173E0,4.0336975E1,1.0064186E0,1.5082506E0,3.3347726E0,2.6298995E0,7.146637E0,1.1850928E0,1.2588266E1,2.7748709E1,1.0255495E0,2.309223E0],"tree_param":{"num_deleted":"0","num_feature":"8","num_nodes":"19","size_leaf_vector":"1"}},{"base_weights":[-1.098288E-2,-1.16754085E-1,2.937113E-1,-3.7744474E-1,3.174084E-2,8.367237E-2,2.148593E-2,3.070636E-1,-5.946342E-1,-2.174335E-1,3.507417E-1,7.2977826E-2,-2.9118484E-1,8.005726E-2,-1.8490553E-2,-8.450501E-2,-9.068778E-3,3.1218832E-2,-5.1120836E-2,7.000633E-2,-4.9822E-2,-7.1688145E-2,6.168484E-3],"categories":[],"categories_nodes":[],"categories_segments":[],"categories_sizes":[],"default_left":[0,0,0,0,0,0,0,0,0,0,0,0,0,0,0,0,0,0,0,0,0,0,0],"id":58,"left_children":[1,3,5,7,9,-1,11,13,15,17,19,-1,21,-1,-1,-1,-1,-1,-1,-1,-1,-1,-1],"loss_changes":[2.0099404E0,1.8012618E0,2.3591785E0,2.6878574E0,2.490263E0,0E0,2.8119628E0,1.2936202E0,1.5807004E0,2.90861E0,4.4120903E0,0E0,1.3748033E0,0E0,0E0,0E0,0E0,0E0,0E0,0E0,0E0,0E0,0E0],"parents":[2147483647,0,0,1,1,2,2,3,3,4,4,6,6,7,7,8,8,9,9,10,10,12,12],"right_children":[2,4,6,8,10,-1,12,14,16,18,20,-1,22,-1,-1,-1,-1,-1,-1,-1,-1,-1,-1],"split_conditions":[3.2051865E1,1.9175502E0,4.0737402E3,4.006088E1,2.001532E1,8.367237E-2,6.569981E1,1.2229467E3,1.7102043E2,7.610354E1,3.318245E3,7.2977826E-2,2.3784478E0,8.005726E-2,-1.8490553E-2,-8.450501E-2,-9.068778E-3,3.1218832E-2,-5.1120836E-2,7.000633E-2,-4.9822E-2,-7.1688145E-2,6.168484E-3],"split_indices":[2,7,3,0,6,0,0,3,0,4,3,0,7,0,0,0,0,0,0,0,0,0,0],"split_type":[0,0,0,0,0,0,0,0,0,0,0,0,0,0,0,0,0,0,0,0,0,0,0],"sum_hessian":[6.030247E1,4.5221237E1,1.5081235E1,1.5851424E1,2.9369812E1,4.3435144E0,1.07377205E1,3.7184157E0,1.2133009E1,1.6668385E1,1.2701427E1,2.8798923E0,7.8578277E0,1.5431516E0,2.1752641E0,7.6531954E0,4.479813E0,5.9246526E0,1.0743732E1,9.122987E0,3.57844E0,3.093863E0,4.7639647E0],"tree_param":{"num_deleted":"0","num_feature":"8","num_nodes":"23","size_leaf_vector":"1"}},{"base_weights":[-8.811159E-3,4.0331695E-2,-6.4230126E-1,-7.47893E-2,2.8361973E-1,-7.527338E-2,-1.4163072E-2,2.0259161E-1,-2.817036E-1,4.517481E-1,-8.5859105E-2,-1.3963208E-2,6.559191E-2,-8.064001E-2,1.5608332E-2,7.164338E-2,-1.8464684E-2],"categories":[],"categories_nodes":[],"categories_segments":[],"categories_sizes":[],"default_left":[0,0,0,0,0,0,0,0,0,0,0,0,0,0,0,0,0],"id":59,"left_children":[1,3,5,7,9,-1,-1,11,13,15,-1,-1,-1,-1,-1,-1,-1],"loss_changes":[1.9045743E0,1.6160406E0,1.3685584E-1,2.3209286E0,3.940321E0,0E0,0E0,2.7963033E0,5.4113827E0,2.958855E0,0E0,0E0,0E0,0E0,0E0,0E0,0E0],"parents":[2147483647,0,0,1,1,2,2,3,3,4,4,7,7,8,8,9,9],"right_children":[2,4,6,8,10,-1,-1,12,14,16,-1,-1,-1,-1,-1,-1,-1],"split_conditions":[1.9232242E2,1.18492744E2,2.6485881E3,5.7944836E1,6.775892E3,-7.527338E-2,-1.4163072E-2,6.581223E1,2.0444223E1,1.9534735E2,-8.5859105E-2,-1.3963208E-2,6.559191E-2,-8.064001E-2,1.5608332E-2,7.164338E-2,-1.8464684E-2],"split_indices":[0,0,3,0,3,0,0,5,6,4,0,0,0,0,0,0,0],"split_type":[0,0,0,0,0,0,0,0,0,0,0,0,0,0,0,0,0],"sum_hessian":[5.934622E1,5.5942802E1,3.4034162E0,3.84441E1,1.7498701E1,2.375912E0,1.0275042E0,1.6434101E1,2.2009998E1,1.5780394E1,1.7183075E0,9.758926E0,6.675175E0,9.628298E0,1.2381701E1,1.1056195E1,4.7241983E0],"tree_param":{"num_deleted":"0","num_feature":"8","num_nodes":"17","size_leaf_vector":"1"}},{"base_weights":[-1.0216249E-2,3.1422533E-2,-7.096771E-2,6.66371E-2,-7.509961E-3,-1.8692148E-1,1.7028528E-1,-3.3762164E-2,4.3722916E-2,3.2238375E-2,-4.122385E-2],"categories":[],"categories_nodes":[],"categories_segments":[],"categories_sizes":[],"default_left":[0,0,0,0,0,0,0,0,0,0,0],"id":60,"left_children":[1,3,-1,-1,5,7,9,-1,-1,-1,-1],"loss_changes":[1.7527E0,1.414866E0,0E0,0E0,1.7775338E0,2.754602E0,2.6146562E0,0E0,0E0,0E0,0E0],"parents":[2147483647,0,0,1,1,4,4,5,5,6,6],"right_children":[2,4,-1,-1,6,8,10,-1,-1,-1,-1],"split_conditions":[1.997705E2,2.442238E1,-7.096771E-2,6.66371E-2,9.57998E1,5.6520214E1,5.286268E3,-3.3762164E-2,4.3722916E-2,3.2238375E-2,-4.122385E-2],"split_indices":[0,0,0,0,0,2,3,0,0,0,0],"split_type":[0,0,0,0,0,0,0,0,0,0,0],"sum_hessian":[5.8413498E1,5.6032944E1,2.3805554E0,2.30614E0,5.3726803E1,2.6716301E1,2.70105E1,2.1890055E1,4.8262477E0,2.1772278E1,5.2382226E0],"tree_param":{"num_deleted":"0","num_feature":"8","num_nodes":"11","size_leaf_vector":"1"}},{"base_weights":[-9.313469E-3,4.5303904E-2,-5.1411444E-1,-2.1319592E-2,5.137162E-1,-8.306057E-2,-1.3929334E-1,-1.5167125E-1,2.8554037E-1,1.0498543E-1,-5.9559554E-2,-5.3035617E-2,2.3808507E-2,9.007481E-3,-3.9532345E-2,-4.285979E-3,6.080651E-2,5.20818E-2,-9.3619406E-2],"categories":[],"categories_nodes":[],"categories_segments":[],"categories_sizes":[],"default_left":[0,0,0,0,0,0,0,0,0,0,0,0,0,0,0,0,0,0,0],"id":61,"left_children":[1,3,5,7,9,-1,11,13,15,-1,17,-1,-1,-1,-1,-1,-1,-1,-1],"loss_changes":[1.6365095E0,1.6873442E0,5.715848E-1,1.9628584E0,2.1306887E0,0E0,6.950204E-1,2.0579824E0,1.5782279E0,0E0,2.6235108E0,0E0,0E0,0E0,0E0,0E0,0E0,0E0,0E0],"parents":[2147483647,0,0,1,1,2,2,3,3,4,4,6,6,7,7,8,8,10,10],"right_children":[2,4,6,8,10,-1,12,14,16,-1,18,-1,-1,-1,-1,-1,-1,-1,-1],"split_conditions":[1.8606006E2,1.9042358E2,1.1989756E1,2.621891E0,2.5884492E3,-8.306057E-2,2.3646262E3,8.421809E1,9.57998E1,1.0498543E-1,1.9376706E2,-5.3035617E-2,2.3808507E-2,9.007481E-3,-3.9532345E-2,-4.285979E-3,6.080651E-2,5.20818E-2,-9.3619406E-2],"split_indices":[0,5,6,7,3,0,3,4,0,0,1,0,0,0,0,0,0,0,0],"split_type":[0,0,0,0,0,0,0,0,0,0,0,0,0,0,0,0,0,0,0],"sum_hessian":[5.751162E1,5.2718006E1,4.793616E0,4.698911E1,5.728897E0,1.9397364E0,2.8538792E0,3.3334576E1,1.3654531E1,2.5307593E0,3.1981378E0,1.2024533E0,1.6514261E0,1.7049135E1,1.6285442E1,7.195283E0,6.4592476E0,2.1684203E0,1.0297174E0],"tree_param":{"num_deleted":"0","num_feature":"8","num_nodes":"19","size_leaf_vector":"1"}},{"base_weights":[-8.609129E-3,-1.03950314E-1,2.713607E-1,-5.228411E-2,-8.6611435E-2,8.10515E-2,1.9639304E-2,4.5128155E-2,-5.949592E-1,6.925162E-2,-2.5976294E-1,-1.0865725E-2,7.70152E-2,-4.434692E-3,-1.17501E-1,-6.326705E-2,9.973074E-3],"categories":[],"categories_nodes":[],"categories_segments":[],"categories_sizes":[],"default_left":[0,0,0,0,0,0,0,0,0,0,0,0,0,0,0,0,0],"id":62,"left_children":[1,3,5,7,-1,-1,9,11,13,-1,15,-1,-1,-1,-1,-1,-1],"loss_changes":[1.5793239E0,1.690163E0,2.025105E0,2.2649574E0,0E0,0E0,2.30002E0,4.18949E0,2.0282595E0,0E0,1.228807E0,0E0,0E0,0E0,0E0,0E0,0E0],"parents":[2147483647,0,0,1,1,2,2,3,3,6,6,7,7,8,8,10,10],"right_children":[2,4,6,8,-1,-1,10,12,14,-1,16,-1,-1,-1,-1,-1,-1],"split_conditions":[3.2051865E1,3.0007473E1,4.0737402E3,1.9561343E2,-8.6611435E-2,8.10515E-2,6.569981E1,1.6886308E2,2.546333E3,6.925162E-2,5.6520214E1,-1.0865725E-2,7.70152E-2,-4.434692E-3,-1.17501E-1,-6.326705E-2,9.973074E-3],"split_indices":[2,2,3,5,0,0,0,4,3,0,2,0,0,0,0,0,0],"split_type":[0,0,0,0,0,0,0,0,0,0,0,0,0,0,0,0,0],"sum_hessian":[5.711021E1,4.3071358E1,1.4038852E1,4.1337723E1,1.7336361E0,3.7617614E0,1.027709E1,3.5824017E1,5.513707E0,2.5815206E0,7.6955695E0,3.0256432E1,5.567584E0,3.3808727E0,2.1328347E0,3.4043248E0,4.291245E0],"tree_param":{"num_deleted":"0","num_feature":"8","num_nodes":"17","size_leaf_vector":"1"}},{"base_weights":[-8.238501E-3,-5.049088E-1,4.452203E-2,-8.1583455E-2,1.5378922E-2,4.40886E-1,-4.766568E-2,-2.0765485E-1,8.302365E-2,-3.335956E-1,9.985874E-2,-6.73755E-2,2.4719387E-2,-8.921213E-2,2.1623736E-2,1.2590055E-1,-4.7778497E-3],"categories":[],"categories_nodes":[],"categories_segments":[],"categories_sizes":[],"default_left":[0,0,0,0,0,0,0,0,0,0,0,0,0,0,0,0,0],"id":63,"left_children":[1,3,5,-1,-1,7,9,11,-1,13,15,-1,-1,-1,-1,-1,-1],"loss_changes":[1.5306338E0,1.2739615E0,1.9556321E0,0E0,0E0,2.7197552E0,1.8832817E0,1.1384537E0,0E0,4.8475623E0,5.1428456E0,0E0,0E0,0E0,0E0,0E0,0E0],"parents":[2147483647,0,0,1,1,2,2,5,5,6,6,7,7,9,9,10,10],"right_children":[2,4,6,-1,-1,8,10,12,-1,14,16,-1,-1,-1,-1,-1,-1],"split_conditions":[6.3779564E0,2.6995212E3,1.7785759E3,-8.1583455E-2,1.5378922E-2,1.3197346E1,7.7975235E1,1.7861129E0,8.302365E-2,2.4813211E1,8.216125E1,-6.73755E-2,2.4719387E-2,-8.921213E-2,2.1623736E-2,1.2590055E-1,-4.7778497E-3],"split_indices":[2,3,3,0,0,2,0,7,0,2,5,0,0,0,0,0,0],"split_type":[0,0,0,0,0,0,0,0,0,0,0,0,0,0,0,0,0],"sum_hessian":[5.6553066E1,4.607716E0,5.1945347E1,2.9681172E0,1.639599E0,9.088137E0,4.2857212E1,3.5843506E0,5.503786E0,1.4157002E1,2.8700209E1,1.5325835E0,2.051767E0,6.714161E0,7.4428415E0,2.3920183E0,2.6308191E1],"tree_param":{"num_deleted":"0","num_feature":"8","num_nodes":"17","size_leaf_vector":"1"}},{"base_weights":[-7.1142255E-3,6.055897E-2,-3.860899E-1,-7.400413E-3,7.7867076E-2,-9.223979E-1,-1.2623372E-2,-4.1228336E-1,7.6758236E-2,-2.6299402E-2,-1.1210828E-1,4.1898113E-1,-5.868367E-2,-5.8129836E-2,3.614129E-2,3.1406984E-2,-9.302764E-3,-3.8497006E-3,5.799509E-2],"categories":[],"categories_nodes":[],"categories_segments":[],"categories_sizes":[],"default_left":[0,0,0,0,0,0,0,0,0,0,0,0,0,0,0,0,0,0,0],"id":64,"left_children":[1,3,5,7,-1,9,11,13,15,-1,-1,17,-1,-1,-1,-1,-1,-1,-1],"loss_changes":[1.4746646E0,2.391156E0,1.7327912E0,1.5869173E0,0E0,1.7175055E-1,1.7695596E0,1.257746E0,1.5857723E0,0E0,0E0,3.2375807E-1,0E0,0E0,0E0,0E0,0E0,0E0,0E0],"parents":[2147483647,0,0,1,1,2,2,3,3,5,5,6,6,7,7,8,8,11,11],"right_children":[2,4,6,8,-1,10,12,14,16,-1,-1,18,-1,-1,-1,-1,-1,-1,-1],"split_conditions":[1.9534735E2,1.8409045E2,2.0367268E2,1.7785994E0,7.7867076E-2,1.9376706E2,2.1290689E2,2.850556E1,8.421809E1,-2.6299402E-2,-1.1210828E-1,1.9899843E2,-5.868367E-2,-5.8129836E-2,3.614129E-2,3.1406984E-2,-9.302764E-3,-3.8497006E-3,5.799509E-2],"split_indices":[4,4,4,7,0,1,4,2,4,0,0,1,0,0,0,0,0,0,0],"split_type":[0,0,0,0,0,0,0,0,0,0,0,0,0,0,0,0,0,0,0],"sum_hessian":[5.5587982E1,4.787857E1,7.7094116E0,4.4643387E1,3.2351866E0,2.561377E0,5.1480346E0,7.0116777E0,3.7631706E1,1.131102E0,1.4302751E0,3.0933058E0,2.0547287E0,5.958672E0,1.053006E0,1.5340425E1,2.2291283E1,1.0031588E0,2.090147E0],"tree_param":{"num_deleted":"0","num_feature":"8","num_nodes":"19","size_leaf_vector":"1"}},{"base_weights":[-7.5227343E-3,3.461328E-2,-5.9602416E-1,1.8332893E-1,-1.3438295E-1,-7.005998E-2,-1.5135944E-2,-3.5400203E-1,3.5062826E-1,-6.1140513E-1,1.6132778E-1,-6.4210504E-2,2.8213099E-2,6.8729326E-2,8.614729E-3,-9.62072E-3,-9.607154E-2,-3.9724395E-2,4.2645115E-2],"categories":[],"categories_nodes":[],"categories_segments":[],"categories_sizes":[],"default_left":[0,0,0,0,0,0,0,0,0,0,0,0,0,0,0,0,0,0,0],"id":65,"left_children":[1,3,5,7,9,-1,-1,11,13,15,17,-1,-1,-1,-1,-1,-1,-1,-1],"loss_changes":[1.4148475E0,1.3670431E0,7.11993E-2,2.7162004E0,3.7068212E0,0E0,0E0,1.5270566E0,1.9434001E0,1.7067397E0,2.6249802E0,0E0,0E0,0E0,0E0,0E0,0E0,0E0,0E0],"parents":[2147483647,0,0,1,1,2,2,3,3,4,4,7,7,8,8,9,9,10,10],"right_children":[2,4,6,8,10,-1,-1,12,14,16,18,-1,-1,-1,-1,-1,-1,-1,-1],"split_conditions":[1.9232242E2,2.8587856E3,2.4609214E3,1.1802063E1,2.2861726E0,-7.005998E-2,-1.5135944E-2,2.023929E1,7.57268E1,2.0309908E0,1.7080835E1,-6.4210504E-2,2.8213099E-2,6.8729326E-2,8.614729E-3,-9.62072E-3,-9.607154E-2,-3.9724395E-2,4.2645115E-2],"split_indices":[0,3,3,2,7,0,0,6,5,7,2,0,0,0,0,0,0,0,0],"split_type":[0,0,0,0,0,0,0,0,0,0,0,0,0,0,0,0,0,0,0],"sum_hessian":[5.522499E1,5.2413437E1,2.8115568E0,2.7834465E1,2.457897E1,1.8102549E0,1.0013018E0,6.343731E0,2.1490734E1,8.997378E0,1.5581592E1,4.3598003E0,1.9839305E0,8.751748E0,1.2738986E1,4.150792E0,4.846586E0,4.854859E0,1.0726733E1],"tree_param":{"num_deleted":"0","num_feature":"8","num_nodes":"19","size_leaf_vector":"1"}},{"base_weights":[-9.315708E-3,-4.36043E-2,6.621409E-2,6.07752E-2,-7.893514E-2,-2.739882E-1,7.2136775E-2,4.1610063E-3,-6.705007E-2,1.8122254E-2,-6.3608915E-2],"categories":[],"categories_nodes":[],"categories_segments":[],"categories_sizes":[],"default_left":[0,0,0,0,0,0,0,0,0,0,0],"id":66,"left_children":[1,3,-1,-1,5,7,9,-1,-1,-1,-1],"loss_changes":[1.3069433E0,1.2849944E0,0E0,0E0,1.5482967E0,2.887201E0,2.434814E0,0E0,0E0,0E0,0E0],"parents":[2147483647,0,0,1,1,4,4,5,5,6,6],"right_children":[2,4,-1,-1,6,8,10,-1,-1,-1,-1],"split_conditions":[8.8221405E1,2.442238E1,6.621409E-2,6.07752E-2,9.329007E1,5.7436462E1,6.775892E3,4.1610063E-3,-6.705007E-2,1.8122254E-2,-6.3608915E-2],"split_indices":[2,0,0,0,0,0,3,0,0,0,0],"split_type":[0,0,0,0,0,0,0,0,0,0,0],"sum_hessian":[5.4512066E1,5.275323E1,1.7588357E0,1.8806158E0,5.0872616E1,2.1849068E1,2.9023548E1,1.2664226E1,9.184842E0,2.5794605E1,3.2289426E0],"tree_param":{"num_deleted":"0","num_feature":"8","num_nodes":"11","size_leaf_vector":"1"}},{"base_weights":[-8.128863E-3,-8.593776E-2,3.0602625E-1,5.97009E-2,-3.3458433E-1,8.471045E-2,1.2182404E-2,-4.5069703E-1,2.5706545E-1,-1.0717533E0,3.8694225E-2,3.5940835E-1,-4.5089546E-1,-6.972804E-2,1.7021343E-2,6.3326515E-2,-2.0787476E-3,-1.18282974E-1,-3.57099E-2,2.5576094E-2,-7.6983385E-2,7.5226516E-2,-2.3866242E-2,-7.839047E-2,-3.5972134E-4],"categories":[],"categories_nodes":[],"categories_segments":[],"categories_sizes":[],"default_left":[0,0,0,0,0,0,0,0,0,0,0,0,0,0,0,0,0,0,0,0,0,0,0,0,0],"id":67,"left_children":[1,3,5,7,9,-1,11,13,15,17,19,21,23,-1,-1,-1,-1,-1,-1,-1,-1,-1,-1,-1,-1],"loss_changes":[1.3696781E0,1.643327E0,1.7590816E0,3.049102E0,4.639514E0,0E0,1.4848526E0,1.4175059E0,2.2746775E0,2.6267052E-2,2.313123E0,1.4149175E0,5.8835185E-1,0E0,0E0,0E0,0E0,0E0,0E0,0E0,0E0,0E0,0E0,0E0,0E0],"parents":[2147483647,0,0,1,1,2,2,3,3,4,4,6,6,7,7,8,8,9,9,10,10,11,11,12,12],"right_children":[2,4,6,8,10,-1,12,14,16,18,20,22,24,-1,-1,-1,-1,-1,-1,-1,-1,-1,-1,-1,-1],"split_conditions":[3.7851376E1,2.8587856E3,1.3714407E2,1.1802063E1,9.9376724E1,8.471045E-2,7.775256E3,2.076738E1,7.57268E1,2.795537E1,1.9561343E2,1.829395E2,2.7672393E0,-6.972804E-2,1.7021343E-2,6.3326515E-2,-2.0787476E-3,-1.18282974E-1,-3.57099E-2,2.5576094E-2,-7.6983385E-2,7.5226516E-2,-2.3866242E-2,-7.839047E-2,-3.5972134E-4],